{"n_features": 103, "scaler": {"mean": [-0.0035072691089562615, 0.5767991351424171, 0.19625922329048034, -0.003932161442325587, 0.3432630972234726, 0.16477527714048143, -0.002256140658629768, 0.09684433526327905, 0.11555421939141726, -0.023071760655049296, -0.05164913349784552, 0.058883424716896816, -0.06982879041412177, -0.12495325028808622, 0.004872123103823623, 0.029768579226707146, -0.17234522579098016, 0.10770731115371465, 0.02850042323069155, -0.3178791377725882, 0.0034583680659629676, 0.021779227655930686, -0.3353199414937312, -0.06677023240702032, 0.017470151216426623, -0.34457583822777604, -0.10752971610282729, 0.031840561268833806, -0.09068365015418216, 0.06522556194558217, 0.0183717618729778, -0.18395628573281972, -0.03090912192145247, 0.011952907120443418, -0.1236797849734833, -0.06480584929106208, 0.009414547448964375, -0.08385266626171348, -0.08007683222202816, 0.025325817848778315, 0.04043348342055496, 0.018172634440326487, 0.0021392658279318732, -0.022136897547277025, -0.06770943986271996, -0.016680761779169058, 0.04356222768733397, -0.057978941084080624, -0.0322023501747496, 0.08166472863881721, -0.04082361272774503, 0.012918020783903073, 0.1963898255018483, -0.03253487362708985, -0.007984239025871885, 0.1389343499995702, -0.08555539586859245, -0.020465049325484, 0.16238143616678385, -0.06312179769426617, -0.029552759463679974, 0.17075918607386312, -0.03709233104934225, 33.36445202546421, 69.27389666011044, 77.6757973396723, 65.1731931781181, -0.019782327577231824, -0.772534327700003, 0.24121960671351197, -0.010754748834140099, 0.13222421556351546, 0.22239670546381923, 0.030537078561157616, 0.6403101121063915, -0.4636163120292325, -0.0020431992620535645, 0.19483539544635223, 0.5682644574473883, -0.002912523174515973, -0.03172086213873293, 1.1189267279637365e-08, -0.0054235138994967085, 0.16252624986815956, -6.621466286361764e-07, 0.2969749372804793, 0.3401692632789536, 1.3195000406151144e-06, 10.16617033934832, 11.433745814857572, 5.827981411764992e-05, -0.8681801915662406, -1.1551806901011885, -3.998364612951548e-06, -32.104269755134595, -38.11509104479443, -0.00017487652810440157, 0.8847922736948187, 0.8998537926212848, 4.087725342088044e-06, 31.985623475307676, 38.18044924116098, 0.00017547492568004228], "scale": [0.45280389492118145, 0.39253580123507475, 0.10141837342508986, 0.37114864591878965, 0.32610872992603934, 0.08378413744735778, 0.2941767857485794, 0.2896088414904019, 0.0706621962168491, 0.261280468539818, 0.2873848420476615, 0.06474560151464152, 0.2894181772013033, 0.3214158133850651, 0.06718371129125301, 0.20792572174271834, 0.23655355435493824, 0.05722243887661189, 0.1877239701519913, 0.18007901009585667, 0.04374443847829588, 0.2696166993944828, 0.26161332163173084, 0.0516896347848284, 0.3531674622297839, 0.355506125197924, 0.06503599569798922, 0.16217837845819583, 0.20523051463468134, 0.04502732122423932, 0.14292514035798695, 0.11579600568961906, 0.03953501479871316, 0.1784563295338326, 0.19532097725439604, 0.03514038437235728, 0.2313666796926232, 0.27893900659062765, 0.04209491632407533, 0.19180642068740125, 0.2067483272129591, 0.044487989695369407, 0.15835535277521157, 0.1510509123535885, 0.03886972983792115, 0.15164361193441833, 0.20647613955937424, 0.038983822680689686, 0.17402667954889417, 0.27051340897186993, 0.059790334716929815, 0.26485953897403386, 0.23134589155123225, 0.059303319250112285, 0.23430490029011702, 0.20998154076590292, 0.05508437886958368, 0.23402160940166075, 0.25637929467185083, 0.0556510131372132, 0.2541702964481585, 0.31422815183738667, 0.06892831338479456, 32.355823833857364, 49.634277843559325, 49.27624350498284, 46.30898014868541, 0.11133675378119887, 0.2843385077807295, 0.37611319652271896, 0.0798181274994859, 0.1115497007443614, 0.14376451560630152, 0.13162266528732836, 0.3795103100285646, 0.30793752587774564, 0.14431957315707775, 0.10343070600386775, 0.192310744514241, 0.07830421805392289, 0.11836888059761759, 1.5392684792025521e-07, 1.1423025137905929, 1.163972495198362, 3.87823138999466e-06, 0.41738011678529635, 0.44503484811982424, 1.008710135804257e-06, 18.6608348673378, 19.21244608008534, 4.6895472248217146e-05, 1.7516155373092528, 2.0692191721423425, 3.885578406599981e-06, 72.76899184338555, 81.89578999784175, 0.00016137482636876225, 1.776900407411648, 1.745656562092814, 3.986631494659768e-06, 76.4995087325859, 72.05177969037294, 0.0001753336749862958]}, "layers": {"weights": [[[-0.0648505836725235, 0.08999919891357422, 0.06666724383831024, -0.001311963307671249, -0.08169210702180862, -0.11462219059467316, -0.07730516791343689, 0.12726423144340515, 0.056575700640678406, 0.01756804808974266, -0.13828380405902863, 0.10008004307746887, 0.06750543415546417, -0.10959654301404953, -0.08490999042987823, -0.11783389002084732, -0.016611874103546143, 0.001804802450351417, -0.02129005454480648, -0.03483835607767105, 0.024846389889717102, -0.12398649752140045, -0.053068503737449646, -0.04453655332326889, -0.019607147201895714, 0.05614059790968895, -0.08979848027229309, -0.023213349282741547, 0.03505396842956543, -0.11486759781837463, 0.033514030277729034, -0.14680500328540802, -0.09284636378288269, 0.13063529133796692, 0.1377037614583969, 0.0863371342420578, -0.023613082244992256, -0.09243940562009811, 0.0879242941737175, -0.04427661746740341, -0.1057816594839096, 0.03290831670165062, -0.09262286871671677, 0.1172165498137474, -0.05707453191280365, 0.04824015498161316, -0.06659823656082153, -0.01161957811564207, -0.0096379853785038, -0.12250405550003052, 0.1560072898864746, 0.105458565056324, 0.13228455185890198, 0.05977750942111015, 0.04213758558034897, 0.13740862905979156, -0.10089980810880661, -0.12140022963285446, -0.15118594467639923, -0.06040092557668686, -0.036933787167072296, -0.07614657282829285, 0.06183011457324028, -0.06127256155014038, -0.08556755632162094, -0.017142241820693016, -0.06980441510677338, 0.06671777367591858, -0.07252778857946396, 0.09781527519226074, 0.050433941185474396, -0.050902899354696274, -0.1488843858242035, 0.0763176903128624, 0.030087361112236977, 0.017724337056279182, 0.09072087705135345, -0.10816693305969238, -0.026196537539362907, -0.10690221935510635, 0.0820792019367218, 0.047857433557510376, -0.08080068230628967, -0.15497559309005737, -0.08633086085319519, -0.032154105603694916, 0.04540865868330002, 0.029481539502739906, 0.12796950340270996, -0.04273217171430588, -0.09859341382980347, 0.0536314882338047, 0.09925401955842972, 0.029228240251541138, 0.08404313772916794, -0.03638656064867973, 0.0510135143995285, -0.03780895844101906, -0.16283686459064484, -0.11137662082910538, -0.1271444857120514, 0.05087900161743164, -0.031091926619410515, -0.0003583196084946394, 0.11606145650148392, -0.07347733527421951, -0.027308620512485504, 0.02708863653242588, -0.048642367124557495, -0.07694967836141586, -0.07625384628772736, -0.1028226688504219, 0.14455442130565643, 0.047868646681308746, 0.046306271106004715, 0.07506261020898819, 0.10309125483036041, -0.11863654106855392, 0.12250413745641708, 0.004847775213420391, 0.04374193400144577, 0.14539016783237457, -0.08554720878601074, -0.06656862050294876, -0.083939328789711, -0.015148972161114216, 0.09997475892305374, 0.06137694790959358, -0.0901627317070961, 0.03461739420890808, -0.002529803430661559, -0.09123587608337402, -0.07370255887508392, -0.06549795717000961, 0.15988554060459137, -0.054283514618873596, -0.01385503076016903, 0.01868065632879734, -0.07605055719614029, 0.09436876326799393, 0.13557158410549164, -0.03342413902282715, -0.04844771698117256, -0.048612672835588455, -0.07920516282320023, -0.16476158797740936, -0.01679416000843048, -0.010801474563777447, -0.15987034142017365, -0.00905341561883688, 0.08660167455673218, -0.11484339833259583, -0.0615532323718071, 0.01167201530188322, 0.14953328669071198, -0.04345650598406792, 0.02731049619615078, 0.02692520245909691, -0.07040891796350479, 0.08119062334299088, -0.0164048932492733, 0.017232369631528854, 0.01768903248012066, 0.03430914506316185, -0.07893698662519455, 0.08711010217666626, -0.07141181826591492, -0.11684408038854599, -0.15005148947238922, 0.014988972805440426, 0.07261257618665695, -0.13630056381225586, 0.014022615738213062, -0.03647645190358162, 0.019091622903943062, -0.08521729707717896, 0.07159018516540527, -0.063764788210392, 0.12174118310213089, -0.0550464428961277, -0.050749409943819046, -0.1366773396730423, 0.12233621627092361, 0.08119845390319824, -0.0881362184882164, 0.009036459028720856, 0.11052307486534119, 0.00392026687040925, 0.00998212955892086, -0.10381514579057693, -0.11199009418487549, 0.13894104957580566, 0.12952417135238647, 0.04274518042802811, -0.037271901965141296, -0.05442807078361511, 0.05284036695957184, 0.09255435317754745, 0.1370040476322174, 0.09467875957489014, 0.060506585985422134, -0.13651493191719055, -0.0866115465760231, 0.10866475850343704, 0.044930025935173035, -0.13319018483161926, -0.09295231103897095, 0.011638298630714417, -0.15748785436153412, -0.09649576991796494, -0.031169343739748, 0.04014433175325394, 0.019791198894381523, -0.10476070642471313, 0.044766850769519806, -0.09942568093538284, -0.07961124181747437, 0.048976536840200424, 0.07597028464078903, 0.12953484058380127, 0.010297433473169804, 0.03937692195177078, -0.15127822756767273, -0.0686880499124527, -0.02473905123770237, -0.1030992940068245, 0.15509545803070068, -0.04983614757657051, 0.10334937274456024, 0.0074799545109272, 0.047060541808605194, -0.02338825725018978, 0.04038061946630478, 0.026322485879063606, -0.05949217081069946, 0.09115276485681534, -0.050639521330595016, -0.08477809280157089, 0.048644497990608215, -0.07877562940120697, 0.10828676074743271, 0.11215762048959732, 0.09372003376483917, -0.00012783716374542564, -0.15726302564144135, 0.09182826429605484, -0.014187793247401714, 0.1251055747270584, 0.1558065265417099, 0.05349316820502281, -0.08486742526292801, -0.00030557712307199836, 0.07683456689119339, -0.032705120742321014, -0.08576533198356628, -0.0016992292366921902], [0.11621753126382828, 0.055470071732997894, 0.07549449056386948, -0.12254708260297775, 0.04967183992266655, 0.15941457450389862, -0.07858742028474808, -0.030399829149246216, 0.11346777528524399, 0.09240857511758804, 0.06120682507753372, 0.03195023909211159, -0.053513407707214355, -0.013647811487317085, 0.11629042029380798, 0.12594783306121826, 0.08211123198270798, 0.09486236423254013, -0.0005315056187100708, -0.03301193565130234, 0.1031399518251419, 0.042802564799785614, 0.09224002063274384, 0.1301099956035614, 0.12283112853765488, -0.0467936210334301, -0.08010168373584747, -0.14648005366325378, 0.013097669929265976, -0.07424583286046982, -0.05061444640159607, -0.024735132232308388, -0.07131596654653549, -0.01385801937431097, -0.1373910903930664, -0.1594678908586502, 0.11790631711483002, -0.0721890851855278, -0.0858878567814827, 0.031719233840703964, 0.10903439670801163, -0.05589648708701134, 0.0685100257396698, -0.11733587831258774, -0.1456127017736435, 0.01983528770506382, -0.03338015824556351, 0.021316753700375557, 0.013484158553183079, 0.17248590290546417, -0.024035882204771042, -0.0488247275352478, 0.08098747581243515, -0.021094731986522675, -0.03305094316601753, -0.07929724454879761, -0.14884409308433533, 0.13742271065711975, 0.0690469965338707, 0.05485265702009201, -0.04560234770178795, -0.08096310496330261, -0.07758313417434692, -0.03110910952091217, -0.006318880710750818, 0.019229358062148094, 0.062414269894361496, -0.07351101189851761, 0.11195839941501617, 0.04815727099776268, 0.039550554007291794, -0.004130503162741661, -0.0386948436498642, -0.06714548915624619, -0.04415951296687126, 0.07862797379493713, -0.16986189782619476, -0.11388012021780014, -0.13600803911685944, -0.14608484506607056, 0.10937533527612686, 0.035917289555072784, -0.024182625114917755, -0.10122188925743103, 0.03475632518529892, 0.00787524227052927, -0.04403284564614296, -0.011576231569051743, -0.05298728868365288, 0.02339654229581356, -0.008395961485803127, -0.09373719245195389, -0.012926509603857994, 0.05838005617260933, 0.030380455777049065, 0.12648805975914001, 0.07650554925203323, -0.11966796964406967, -0.07241404801607132, -0.007632234133780003, -0.07884656637907028, 0.055212587118148804, 0.14820168912410736, 0.04031634330749512, -0.016097694635391235, 0.02876848168671131, 0.030287904664874077, -0.018930653110146523, 0.08273811638355255, 0.010763846337795258, 0.1450548768043518, 0.08664702624082565, -0.03171001747250557, -0.06295602768659592, -0.1283343881368637, -0.08300889283418655, -0.07595912367105484, 0.059521738439798355, -0.1328035444021225, -0.03167880326509476, 0.11893120408058167, -0.09520561248064041, 0.056867536157369614, -0.07879024744033813, -0.07155141979455948, 0.041853878647089005, 0.01791354827582836, 0.14742319285869598, 0.05038963630795479, 0.02807980217039585, -0.08118516206741333, -0.08606946468353271, 0.09228930622339249, 0.1012599989771843, 0.14112861454486847, -0.012504799291491508, -0.02504260465502739, 0.10528933256864548, -0.05518551170825958, 0.14793843030929565, 0.08542971312999725, -0.05266489461064339, 0.11000290513038635, 0.06571922451257706, -0.09787216782569885, 0.10289880633354187, -0.01636240817606449, 0.1360068917274475, -0.0860280692577362, 0.12228546291589737, -0.0470869354903698, -0.1447792947292328, 0.13381724059581757, -0.13241466879844666, -0.06699130684137344, 0.16260474920272827, 0.12189500033855438, -0.017051303759217262, 0.02663293480873108, -0.010503322817385197, -0.03186533600091934, -0.06568717211484909, 0.07010781764984131, 0.027004549279808998, 0.04063037782907486, 0.08320919424295425, -0.15389864146709442, -0.014600585214793682, -0.13162556290626526, -0.010373732075095177, 0.0086897574365139, 0.11392277479171753, -0.0019093455048277974, -0.09692221134901047, -0.1347394436597824, 0.10331068187952042, 0.02123912051320076, -0.1309637427330017, -0.10801998525857925, 0.07524842023849487, -0.09692313522100449, 0.10672653466463089, 0.07660626620054245, -0.09375152736902237, -0.1101774126291275, 0.13195939362049103, -0.07432285696268082, -0.04198799282312393, 0.04518856853246689, 0.15230129659175873, 0.09905092418193817, 0.06892800331115723, -0.027536680921912193, -0.13174524903297424, 0.09170033037662506, 0.05404900014400482, -0.04412612318992615, 0.07494766265153885, -0.12025284022092819, 0.017651492729783058, -0.1253039836883545, -0.004441855475306511, -0.08712106198072433, -0.11766045540571213, -0.11772580444812775, 0.07361004501581192, 0.10560526698827744, 0.04398845508694649, 0.11954198777675629, -0.01543168630450964, -0.012281174771487713, 0.09060275554656982, -0.06850355863571167, 0.16743460297584534, -0.11573345959186554, 0.07346313446760178, -0.07812418043613434, 0.14013147354125977, 0.03525343909859657, 0.13868448138237, -0.09829917550086975, -0.018471233546733856, 0.11245904117822647, -0.006231706589460373, 0.004367787856608629, 0.06947114318609238, -0.04377761483192444, 0.08487381041049957, -0.0027922699227929115, 0.14014571905136108, -0.12457059323787689, -0.013545544818043709, 0.09238235652446747, 0.07101868093013763, -0.0011845827102661133, 0.05210519954562187, -0.08217093348503113, -0.11786714196205139, 0.02619723603129387, 0.0072557562962174416, 0.06732107698917389, -0.08362371474504471, 0.16542068123817444, 0.16205914318561554, 0.017579125240445137, -0.008597955107688904, -0.06489228457212448, 0.04125427082180977, 0.05408886820077896, -0.11641762405633926, 0.14752471446990967, 0.09096118807792664, 0.10615340620279312, 0.0562838613986969, -0.00021960953017696738, -0.021296249702572823], [0.11751745641231537, 0.11432140320539474, -0.09485214948654175, -0.15502412617206573, -0.06427602469921112, 0.07125856727361679, 0.0985008254647255, -0.03378509357571602, 0.0687057301402092, -0.02858048863708973, 0.1544095277786255, 0.1201697513461113, 0.08884014189243317, -0.042273979634046555, -0.011929666623473167, -0.07280169427394867, -0.14460808038711548, 0.11625685542821884, 0.046484678983688354, 0.09099584072828293, 0.11121948063373566, 0.006261079106479883, 0.04736795276403427, 0.11989402770996094, 0.09534767270088196, -0.03059178590774536, 0.020486926659941673, -0.10649320483207703, 0.11547636240720749, 0.01616777293384075, -0.09450745582580566, 0.029943352565169334, 0.04993431642651558, -0.000988172017969191, -0.08041470497846603, 0.023834291845560074, 0.051549285650253296, 0.0933305025100708, 0.02601940929889679, 0.08669990301132202, -0.029444441199302673, -0.01476554200053215, 0.09287571907043457, -0.0436805821955204, -0.09156398475170135, -0.17003534734249115, 0.09058577567338943, -0.006989411078393459, 0.03541150316596031, -0.06955921649932861, -0.0565892830491066, -0.09407000243663788, -0.03936639800667763, 0.010951145552098751, -0.01085231639444828, -0.0049253785982728004, 0.06581264734268188, -0.09435416013002396, 0.03017292730510235, 0.08011278510093689, 0.008015923202037811, -0.0038933611940592527, 0.14509664475917816, 0.12920966744422913, -0.12731102108955383, 0.14994557201862335, -0.008186468854546547, -0.0569876991212368, -0.04375661537051201, 0.1704023778438568, -0.004703064914792776, -0.021287688985466957, 0.053431592881679535, -0.027867062017321587, -0.13800965249538422, -0.12571075558662415, -0.08466410636901855, -0.1325782835483551, -0.06642498075962067, 0.06860356777906418, -0.055049583315849304, -0.05594157427549362, 0.10163535177707672, -0.05031503364443779, 0.013065561652183533, -0.05870610848069191, -0.13147661089897156, -0.0960395336151123, -0.12022954970598221, -0.06613520532846451, -0.0785059854388237, -0.12375254184007645, -0.05718859285116196, 0.017502252012491226, -0.11276353895664215, -0.02015881985425949, -0.023114368319511414, 0.08102677017450333, -0.11952649056911469, 0.10325618833303452, -0.011946864426136017, -0.16898135840892792, 0.11438507586717606, 0.1407305896282196, -0.11614309251308441, -0.09077922999858856, 0.07492220401763916, 0.04643243923783302, -0.09328959882259369, -0.11873878538608551, -0.0018954331753775477, 0.002988728228956461, 0.035402409732341766, -0.00042573639075271785, 0.008856300264596939, 0.029616879299283028, -0.07149260491132736, -0.09561669081449509, 0.10262288898229599, 0.09866920858621597, 0.015254830941557884, 0.038993168622255325, -0.13629260659217834, -0.020723707973957062, 0.02274695597589016, -0.09904412180185318, -0.07291356474161148, -0.038543879985809326, -0.09446825087070465, -0.09164339303970337, -0.07863450795412064, -0.043538834899663925, -0.08799150586128235, 0.06099025160074234, -0.004404324572533369, 0.058702390640974045, 0.07397155463695526, 0.029382316395640373, -0.13670335710048676, 0.004001582972705364, 0.029008420184254646, 0.10176561027765274, -0.061181385070085526, -0.06672826409339905, -0.02418830431997776, -0.06241956725716591, 0.04594102501869202, -0.005557982716709375, -0.023991836234927177, 0.13553975522518158, 0.003636324079707265, -0.09800640493631363, -0.12338299304246902, -0.08250638097524643, -0.11372744292020798, -0.12662705779075623, -0.06002261862158775, -0.09934729337692261, -0.11311028897762299, 0.13457220792770386, -0.11860521137714386, -0.03036954253911972, -0.016186371445655823, 0.08419502526521683, -0.07195013016462326, -0.06318499892950058, 0.10985405743122101, 0.08527346700429916, 0.047269921749830246, -0.03652511164546013, -0.1257394701242447, 0.06838035583496094, 0.11890595406293869, -0.013257959857583046, 0.02967151440680027, -0.06275305896997452, 0.07784472405910492, -0.10810675472021103, -0.016004350036382675, -0.006574670784175396, 0.03418174013495445, -0.1087706983089447, -0.08977682888507843, 0.058571383357048035, -0.013480780646204948, 0.0010368931107223034, -0.07601846009492874, -0.041939109563827515, -0.023864416405558586, -0.14878319203853607, -0.058048125356435776, -0.09408091008663177, -0.14459224045276642, 0.12846523523330688, -0.04983343929052353, 0.039929408580064774, -0.044205278158187866, -0.003321833675727248, 0.0661490261554718, -0.013407321646809578, -0.04574744030833244, -0.011824455112218857, -0.06447498500347137, 0.07790869474411011, 0.10292915254831314, 0.14537589251995087, -0.09434410184621811, 0.05851581320166588, 0.1335420161485672, -0.10584405064582825, -0.10779056698083878, 0.045588091015815735, 0.04175153374671936, 0.06516745686531067, -0.11935283988714218, 0.09974584728479385, -0.057271409779787064, -0.04311852529644966, -0.10241761803627014, 0.0549444817006588, 0.005521776620298624, -0.03599269688129425, -0.045867931097745895, 0.1102490946650505, 0.019260654225945473, 0.03864673152565956, -0.0544111393392086, -0.08604524284601212, -0.03573139011859894, -0.06029229611158371, 0.07018551230430603, 0.03426797688007355, -0.08059042692184448, 0.07508379220962524, -0.04229292646050453, -0.025793809443712234, 0.09010864794254303, -0.01545982901006937, -0.1372349113225937, 0.07363519072532654, -0.0017472946783527732, -0.019827883690595627, -0.06234463304281235, 0.043498408049345016, -0.011924240738153458, 0.05674402415752411, 0.13572150468826294, 0.09062755107879639, -0.07689342647790909, -0.08381765335798264, -0.02554698847234249, 0.03331036493182182, -0.10164055973291397, -0.019055260345339775, 0.08789905905723572, 0.0742122009396553], [-0.0641644150018692, 0.05905371159315109, -0.1121399849653244, 0.06157061830163002, -0.1112361028790474, -0.031911350786685944, 0.1124308779835701, -0.05686116963624954, -0.03234891965985298, 0.015525048598647118, 0.06616601347923279, 0.011226733215153217, 0.03820718452334404, -0.011029006913304329, -0.07862194627523422, -0.07702988386154175, -0.04712781310081482, 0.0767364501953125, 0.0201816838234663, -0.02016601152718067, -0.02231808938086033, 0.09183713048696518, -0.10618577897548676, 0.01007517334073782, -0.008014041930437088, 0.020958198234438896, -0.1412607729434967, 0.08761472254991531, 0.12755000591278076, 0.023225730285048485, 0.06063883751630783, 0.06265890598297119, 0.024104811251163483, -0.09631659090518951, 0.05536573380231857, 0.03140518069267273, 0.014580635353922844, 0.0837012305855751, 0.1241394653916359, 0.0777585506439209, -0.019744805991649628, -0.05596863850951195, 0.1452113538980484, 0.09786911308765411, -0.10695727169513702, 0.12651732563972473, 0.07627842575311661, -0.017136652022600174, 0.004361241590231657, -0.07441967725753784, -0.08089528977870941, -0.0040956344455480576, 0.06490477919578552, -0.17078129947185516, -0.017397236078977585, 0.0022364305332303047, 0.028231797739863396, 0.10701113939285278, -0.08148451894521713, -0.03588106483221054, 0.06177593022584915, 0.0057965852320194244, -0.11274439096450806, -0.012264835648238659, -0.1265636533498764, -0.10971136391162872, 0.02347727119922638, -0.026625368744134903, 0.1355210244655609, -0.06326915323734283, 0.013263598084449768, 0.032713450491428375, -0.1524805724620819, 0.03969183564186096, -0.11228387802839279, 0.09585942327976227, -0.08709951490163803, -0.008440511301159859, -0.08863762021064758, 0.12874726951122284, 0.010433558374643326, 0.047965649515390396, -0.14256878197193146, 0.031406063586473465, -0.12279700487852097, 0.09761598706245422, -0.08335086703300476, -0.07568314671516418, -0.08957970142364502, -0.03735759109258652, 0.015966396778821945, -0.09719090908765793, 0.10704784095287323, -0.03786465898156166, 0.04322995990514755, -0.050352033227682114, 0.023469891399145126, -0.005328528117388487, -0.12822619080543518, -0.09972819685935974, 0.12293928116559982, 0.15316037833690643, -0.008206124417483807, -0.05724743381142616, 0.008552340790629387, -0.010985307395458221, -0.10672443360090256, -0.10563767701387405, 0.06580571085214615, 0.07541767507791519, -0.1269959956407547, -0.057949088513851166, -0.037320125848054886, 0.008110282011330128, -0.08899615705013275, -0.1389417201280594, 0.10535303503274918, -0.12113726139068604, 0.07188043743371964, -0.06825245916843414, -0.13583627343177795, -0.04578695073723793, 0.021776709705591202, 0.1272909939289093, 0.10580699890851974, -0.00420154957100749, 0.06585320085287094, -0.11896076053380966, -0.019267909228801727, 0.13259947299957275, -0.11971238255500793, -0.11467398703098297, -0.06417986005544662, -0.1392117589712143, -0.06391490250825882, 0.007785083260387182, -0.01881292834877968, 0.06365618109703064, 0.04214221611618996, -0.05402214080095291, -0.052527640014886856, -0.016011806204915047, 0.02184828743338585, -0.082171730697155, 0.009783115237951279, -0.07099197059869766, -0.030430177226662636, -0.036398500204086304, -0.09173662215471268, 0.1746109277009964, 0.04115099087357521, -0.1404268443584442, 0.12900207936763763, 0.01745300181210041, 0.1208338513970375, 0.10237011313438416, -0.04064014554023743, -0.1658303588628769, -0.04393623396754265, 0.02277260459959507, 0.04446648433804512, -0.09227098524570465, -0.10922397673130035, 0.11853038519620895, 0.1454193890094757, 0.019616909325122833, -0.11176050454378128, -0.09419360756874084, -0.13791310787200928, 0.1098121777176857, -0.06103912368416786, 0.0040807719342410564, -0.05752820894122124, 0.053773652762174606, 0.039453815668821335, 0.10474065691232681, -0.044567372649908066, -0.15847961604595184, -0.1094876378774643, 0.14533783495426178, 0.10853353142738342, -0.012497937306761742, 0.03463588282465935, 0.010335957631468773, -0.11311215907335281, 0.07232803106307983, 0.0017266635550186038, -0.04619695246219635, 0.028971794992685318, -0.14249485731124878, -0.09423518180847168, 0.09748934954404831, -0.1042880192399025, 0.014591775834560394, -0.06574080884456635, -0.024348905310034752, -0.07298406958580017, -0.05394035577774048, 0.08625126630067825, -0.02170746400952339, 0.04378250241279602, -0.03963587433099747, 0.059192147105932236, 0.14779700338840485, 0.06079259142279625, -0.0760466679930687, -0.13069741427898407, -0.08072070777416229, -0.00021882493456359953, -0.12209000438451767, -0.03047410398721695, 0.02850557118654251, -0.06110740825533867, 0.03432256355881691, -0.11338823288679123, -0.149604931473732, 0.03330850601196289, -0.035523854196071625, 0.08724010735750198, 0.019603336229920387, -0.08082319051027298, 0.11103568971157074, 0.039224445819854736, 0.01992194540798664, -0.02759920246899128, 0.00366670242510736, -0.006822626106441021, -0.12157405912876129, 0.10888155549764633, -0.12319149076938629, 0.09954275190830231, -0.005023403093218803, -0.053621821105480194, 0.030962975695729256, 0.11145436018705368, 0.09651398658752441, 0.07942347973585129, 0.0764256939291954, 0.07782024890184402, 0.09109769761562347, -0.08410020172595978, 0.0033341245725750923, -0.08068551868200302, 0.1634596884250641, 0.09708251059055328, -0.16663123667240143, 0.05910851061344147, 0.11051963269710541, -0.05057883262634277, -0.026176409795880318, 0.08439779281616211, -0.09025808423757553, 0.020541304722428322, -0.026766756549477577, 0.08601927012205124, 0.11156671494245529], [0.0827251449227333, -0.012624289840459824, 0.11720412969589233, 0.06328322738409042, -0.04334498569369316, 0.09964250773191452, -0.11947926133871078, -0.012974176555871964, -0.05424492061138153, -0.0969499722123146, -0.08907025307416916, 0.018076878041028976, -0.06862583011388779, 0.09268670529127121, -0.07486145943403244, -0.004215915221720934, 0.026192348450422287, 0.030478009954094887, -0.0469869039952755, 0.007427626755088568, 0.14068177342414856, 0.0112409433349967, -0.02617577835917473, -0.06279374659061432, 0.12300075590610504, -0.1454334259033203, 0.046245817095041275, -0.040906697511672974, 0.08282507210969925, 0.10726241767406464, 0.08579825609922409, -0.07486078888177872, 0.06780307739973068, -0.0609704852104187, -0.04128432273864746, -0.004615387413650751, 0.13596609234809875, 0.0855255201458931, 0.0897669568657875, -0.03186751529574394, 0.020627999678254128, 0.07571444660425186, -0.028025832027196884, -0.09829023480415344, -0.06884773820638657, -0.07432123273611069, -0.09260252863168716, -0.07537434250116348, -0.15657763183116913, -0.10408218204975128, 0.09370297938585281, -0.041881922632455826, -0.009876093827188015, 0.08449815958738327, -0.10534016042947769, 0.13418471813201904, 0.06283082813024521, -0.0933770090341568, -0.06860539317131042, 0.10853763669729233, 0.10933679342269897, 0.0018320451490581036, 0.03923986479640007, -0.04545389488339424, 0.08278926461935043, -0.10017254948616028, 0.13130104541778564, 0.023194001987576485, 0.0369047075510025, -0.028188608586788177, -0.04782912880182266, -0.11960004270076752, -0.11019457131624222, -0.09347210079431534, 0.028352826833724976, -0.0168911162763834, -0.15739989280700684, 0.1086447611451149, 0.1021210178732872, 0.07555034011602402, 0.14918778836727142, -0.11844313889741898, -0.05502011254429817, 0.049363598227500916, 0.05583267658948898, -0.06848127394914627, 0.13471616804599762, -0.05338573083281517, -0.0843636766076088, 0.002870517550036311, -0.02294285036623478, 0.04598163068294525, -0.08387750387191772, 0.1269952356815338, -0.02820921503007412, -0.0640711858868599, 0.13438516855239868, 0.07556290924549103, 0.11396139860153198, 0.0334203876554966, 0.0876840353012085, 0.03548085317015648, -0.0739036500453949, 0.014919181354343891, -0.046258822083473206, -0.07131409645080566, 0.09950434416532516, -0.02444339171051979, -0.15087653696537018, -0.03323040157556534, 0.07180804759263992, -0.11898404359817505, 0.1455930471420288, 0.00951317884027958, -0.021042777225375175, 0.04910579323768616, 0.10960248112678528, -0.0373670868575573, 0.0176997072994709, 0.03310662508010864, -0.018865395337343216, 0.1227198988199234, 0.04094444960355759, 0.015447624959051609, 0.11324913799762726, 0.06680506467819214, 0.08659742027521133, 0.12772855162620544, 0.04386504739522934, 0.006782915443181992, 0.006576974410563707, 0.03874567151069641, -0.08190519362688065, 0.09980624169111252, 0.11826455593109131, -0.11273790150880814, 0.10337873548269272, -0.06200316175818443, -0.05299557000398636, 0.09541989117860794, -0.1147766262292862, 0.04036828875541687, 0.13035447895526886, 0.0015518477885052562, -0.12491414695978165, -0.08252342790365219, 0.009324303828179836, 0.15605758130550385, -0.006974004674702883, -0.04743222892284393, 0.016988441348075867, -0.024965181946754456, 0.08755876123905182, -0.11428910493850708, 0.05559166893362999, 0.035269226878881454, 0.10662415623664856, -0.07714952528476715, 0.0006596738821826875, 0.08517182618379593, -0.07796230912208557, 0.11970994621515274, 0.09099544584751129, -0.13654260337352753, -0.09040004014968872, 0.0809626504778862, -0.15412656962871552, -0.010727979242801666, -0.06418024003505707, 0.03394230455160141, -0.08409511297941208, 0.10888653248548508, 0.15742173790931702, 0.11679530888795853, 0.026911625638604164, -0.052423641085624695, 0.07517368346452713, -0.16399940848350525, -0.1198195293545723, -0.035739969462156296, 0.02450360171496868, 0.08732116967439651, 0.053106263279914856, -0.014044751413166523, -0.07196962088346481, 0.11347576975822449, -0.05361687391996384, -0.0058606271632015705, -0.1326451152563095, 0.0742739886045456, 0.05121755599975586, -0.06378884613513947, -0.11143571138381958, 0.0394158661365509, 0.056051112711429596, -0.05418705567717552, 0.10444971919059753, -0.08945177495479584, -0.021022120490670204, 0.11420571058988571, -0.0003957228036597371, -0.008206110447645187, 0.014012987725436687, -0.07662145048379898, 0.12830372154712677, 0.021210985258221626, 0.13860832154750824, -0.04492584615945816, -0.08162488043308258, -0.11074995249509811, 0.08969719707965851, -0.05266895890235901, 0.08805117011070251, 0.03448093682527542, 0.08661159127950668, -0.1339528113603592, 0.1279798150062561, 0.09318160265684128, 0.10157129168510437, 0.09995641559362411, 0.06979081779718399, -0.004367663990706205, -0.11155429482460022, -0.15155532956123352, 0.10776680707931519, 0.07150530815124512, 0.07125066965818405, 0.040556859225034714, -0.1108904480934143, -0.07687293738126755, 0.05665215104818344, 0.022903434932231903, -0.10707295686006546, -0.024781709536910057, -0.08223799616098404, 0.04579821974039078, -0.07723242044448853, 0.050891995429992676, -0.014474712312221527, 0.030105354264378548, -0.08825057744979858, -0.07974734157323837, 0.00608406588435173, 0.03386573866009712, 0.002467881888151169, -0.09741472452878952, 0.05577916279435158, 0.04776519536972046, 0.0704880878329277, -0.14399130642414093, 0.04161917418241501, -0.07392222434282303, -0.07178393751382828, 0.10963701456785202, -0.1307968944311142, -0.006287291646003723], [0.0577787309885025, 0.0640672966837883, 0.05389602854847908, -0.14929081499576569, -0.05497436597943306, -0.0006394759402610362, -0.11341772973537445, 0.014737363904714584, -0.08565658330917358, -0.10609497874975204, -0.008985987864434719, -0.07348297536373138, 0.020823024213314056, 0.028721019625663757, 0.07533415406942368, -0.10103823244571686, -0.11853431165218353, -0.07264978438615799, -0.0003412868536543101, 0.027944205328822136, -0.14000700414180756, 0.13439488410949707, -0.1384458839893341, 0.02659028396010399, 0.041388992220163345, 0.13138674199581146, 0.08112867176532745, 0.05768579989671707, -0.009766870178282261, 0.06676896661520004, -0.07695002853870392, 0.09485355764627457, 0.019034862518310547, 0.11940602213144302, 0.002918883226811886, 0.018410690128803253, 0.04624852165579796, 0.07175126671791077, -0.10374879837036133, -0.10628921538591385, -0.07811343669891357, -0.12234413623809814, 0.07775833457708359, -0.08706057071685791, 0.13042257726192474, -0.08856981247663498, -0.07159008085727692, 0.07275879383087158, 0.012844882905483246, 0.023982057347893715, 0.04097898304462433, 0.08867155015468597, -0.053735893219709396, 0.10532065480947495, 0.1321747750043869, 0.07261128723621368, -0.10919412970542908, -0.017692577093839645, -0.09334981441497803, -0.1356002539396286, -0.03394053876399994, -0.03755592182278633, 0.14751094579696655, 0.06176208704710007, 0.0632929652929306, 0.01980656571686268, -0.040276892483234406, -0.0395415835082531, 0.1334306299686432, -0.06776226311922073, 0.10644442588090897, 0.04947314038872719, 0.011634191498160362, 0.08625554293394089, 0.0184759721159935, 0.049462124705314636, 0.12115602940320969, -0.02033526636660099, -0.09262285381555557, 0.053062163293361664, 0.08683288097381592, -0.08121571689844131, 0.03482601419091225, 0.006249148864299059, 0.06303229182958603, -0.10595633089542389, 0.013325724750757217, 0.11165053397417068, -0.05533410608768463, -0.11557497084140778, 0.13935449719429016, -0.0915500745177269, 0.1285683810710907, 0.017292100936174393, -0.095820352435112, 0.07725347578525543, -0.04662054032087326, 0.013152160681784153, -0.05575837939977646, 0.04864161089062691, -0.14157502353191376, -0.07280348241329193, 0.14914241433143616, -0.07616954296827316, 0.014486691914498806, -0.06403055787086487, 0.06402663886547089, -0.1206129714846611, 0.14475566148757935, -0.04869318753480911, -0.05800960585474968, -0.1152770072221756, -0.08514181524515152, 0.03843113034963608, -0.025737324729561806, 0.05293077602982521, 0.02335726097226143, -0.08397144079208374, 0.06948940455913544, 0.05735194683074951, -0.07646594196557999, -0.062378473579883575, -0.14540764689445496, 0.08465202152729034, 0.027040032669901848, 0.00916207954287529, 0.05477307364344597, 0.08759881556034088, 0.026896944269537926, 0.04233961179852486, -0.04959370940923691, -0.09914736449718475, -0.034381698817014694, -0.13610027730464935, -0.02965688519179821, 0.09035005420446396, -0.13767696917057037, -0.08244217187166214, -0.04505917802453041, 0.12338895350694656, -0.014813687652349472, 0.03622642531991005, -0.1702728420495987, -0.08655449748039246, 0.1177007257938385, 0.10115492343902588, -0.09526773542165756, 0.11978549510240555, 0.07197359949350357, 0.07500393688678741, -0.03700798377394676, 0.005759068299084902, 0.02093818224966526, 0.05028243362903595, -0.13507525622844696, -0.13746149837970734, -0.03576558083295822, 0.039203472435474396, -0.04828135669231415, 0.07603786140680313, 0.10802444815635681, -0.1238105520606041, 0.018179243430495262, -0.061554305255413055, 0.1239861324429512, -0.10665053129196167, 0.05090198293328285, 0.10709724575281143, 0.08034121245145798, 0.059004977345466614, -0.0024583209306001663, 0.04022238031029701, 0.09209179133176804, -0.00714848330244422, -0.15740835666656494, 0.09403447061777115, 0.06371185928583145, 0.0718955397605896, -0.04720339924097061, 0.07411658763885498, -0.04399913549423218, 0.010898767039179802, -0.11156941205263138, 0.06613745540380478, 0.1677197366952896, -0.08858703821897507, 0.14240258932113647, -0.033170245587825775, 0.06170644983649254, 0.0731801688671112, -0.01544817816466093, 0.08183471858501434, 0.06281288713216782, -0.0031991105061024427, -0.08101003617048264, 0.056375652551651, 0.08989124745130539, 0.02327176183462143, 0.09582163393497467, -0.030098669230937958, 0.045409101992845535, -0.08966057747602463, -0.018994009122252464, -0.170171320438385, -0.04647430405020714, -0.005497552454471588, -0.03983153775334358, 0.00895147118717432, -0.014595024287700653, -0.03429180011153221, -0.059891361743211746, -0.02319532446563244, -0.0646330863237381, -0.1490776240825653, 0.04804803803563118, 0.0767585039138794, 0.04033214598894119, 0.007758461404591799, -0.06247403100132942, 0.09075301885604858, -0.03875157982110977, -0.048757266253232956, -0.1413591504096985, -0.01804204285144806, -0.006503973621875048, -0.06264486908912659, -0.002919098362326622, -0.043043043464422226, 0.038520000874996185, 0.06564624607563019, 0.08147372305393219, 0.04807955399155617, 0.15007580816745758, -0.13735905289649963, -0.09130559116601944, -0.16316743195056915, 0.0059909638948738575, 0.057576630264520645, -0.06715071946382523, 0.06979122012853622, -0.13506464660167694, 0.08711983263492584, -0.047130513936281204, -0.11433984339237213, -0.05657535791397095, -0.012656373903155327, -0.032139699906110764, -0.027267033234238625, 0.09483399242162704, -0.034680888056755066, -0.03297148272395134, 0.017002273350954056, 0.06710298359394073, -0.08490674197673798, -0.01563802734017372, -0.09482591599225998], [-0.08558905869722366, 0.027024246752262115, -0.11463373899459839, -0.01334009226411581, 0.02984333597123623, -0.09174267202615738, 0.04936497285962105, -0.032310523092746735, 0.1524048000574112, -0.04752179607748985, 0.1250118613243103, -0.016094811260700226, -0.11841854453086853, 0.047496527433395386, 0.08580033481121063, -0.009364024735987186, 0.11714161932468414, 0.062491487711668015, -0.06635487079620361, -0.10556583106517792, 0.013826201669871807, -0.0363934263586998, 0.06539038568735123, 0.09214979410171509, -0.04628022015094757, -0.05741959810256958, 0.05021917074918747, -0.04510439559817314, 0.10061749070882797, -0.010643857531249523, 0.0505136139690876, -0.11531214416027069, -0.006794314831495285, -0.047090787440538406, 0.07209035754203796, -0.08952876925468445, 0.09878088533878326, 0.11068221926689148, -0.0832781195640564, -0.1357332468032837, -0.12812870740890503, 0.08243634551763535, 0.04623076319694519, 0.020071640610694885, -0.104004867374897, 0.002429800573736429, -0.00017177958216052502, -0.026072222739458084, 0.10118550062179565, -0.14255930483341217, 0.07682078331708908, 0.01040476281195879, -0.054940320551395416, 0.0170467309653759, 0.08204719424247742, 0.14866796135902405, -0.06229737773537636, -0.07732474058866501, 0.013115460984408855, 0.0406678207218647, -0.04769438877701759, -0.06671051681041718, -0.1500626504421234, 0.1497507393360138, -0.11224304884672165, -0.07190462946891785, -0.04994659125804901, -0.03342246636748314, -0.09793799370527267, -0.017893558368086815, -0.10496930032968521, 0.04796209558844566, -0.1011117696762085, 0.012015266343951225, 0.06491581350564957, 0.03659425303339958, -0.0262728501111269, -0.030153194442391396, -0.026177341118454933, 0.045083362609148026, 0.14760690927505493, 0.05548335611820221, -0.004886853042989969, 0.06656748056411743, -0.037868741899728775, -0.13722337782382965, 0.022833675146102905, 0.13433657586574554, -0.05297668278217316, 0.03720885515213013, -0.09235433489084244, 0.02971593290567398, -0.07280353456735611, -0.05117960646748543, 0.10309012234210968, -0.0688738152384758, 0.08744855225086212, 0.05638071522116661, 0.0734318271279335, -0.09589878469705582, 0.012117036618292332, -0.04715732857584953, 0.15445737540721893, 0.13397720456123352, -0.026890650391578674, 0.11472326517105103, 0.02687859535217285, 0.02696235664188862, -0.11033555120229721, 0.10273244976997375, -0.09697351604700089, 0.10404081642627716, 0.09975028783082962, 0.015947680920362473, -0.09382792562246323, -0.08805245906114578, -0.04044074937701225, -0.06035498157143593, -0.07221583276987076, 0.12478912621736526, -0.00398248340934515, -0.05678228661417961, -0.035569608211517334, 0.015870386734604836, 0.05378211289644241, 0.0378437340259552, 0.12848582863807678, -0.042630456387996674, 0.14450585842132568, 0.11861109733581543, -0.08601608872413635, 0.11389191448688507, -0.11256100237369537, 0.08278420567512512, -0.038013167679309845, 0.08129386603832245, 0.11981149762868881, 0.05288878455758095, 0.03598184138536453, -0.04141649603843689, -0.10657618194818497, -0.027313916012644768, -0.05516557767987251, 0.013833289965987206, -0.05302140861749649, 0.07710067182779312, 0.0021026981994509697, 0.05687980353832245, -0.13168077170848846, 0.15258148312568665, 0.08011867851018906, -0.0477745346724987, 0.06217970699071884, 0.09061634540557861, -0.06918241083621979, 0.02178063616156578, -0.0485723502933979, -0.13052667677402496, -0.011758795939385891, -0.11427047848701477, -0.1276378035545349, -0.12387287616729736, 0.10733844339847565, 0.05011824890971184, 0.13024696707725525, 0.009802824817597866, -0.07676612585783005, -0.030663006007671356, 0.008387837558984756, -0.08086783438920975, 0.07682689279317856, -0.07165814936161041, 0.014156599529087543, 0.08142958581447601, -0.08143628388643265, -0.08063454926013947, 0.10841512680053711, -0.03820350393652916, -0.15482309460639954, 0.16830064356327057, -0.08608134090900421, 0.013293427415192127, 0.1286536157131195, -0.1109539195895195, -0.11115304380655289, -0.13084806501865387, -0.0806923434138298, -0.11824808269739151, 0.08721598982810974, -0.1070469543337822, -0.0001547510619275272, 0.15855902433395386, 0.05350864678621292, 0.00028849640511907637, -0.06332413107156754, 0.057555921375751495, -0.013912402093410492, -0.043277557939291, -0.09028474241495132, 0.13913260400295258, 0.015028269030153751, -0.11509537696838379, -0.0049471305683255196, 0.018315840512514114, 0.06661029905080795, 0.06241727992892265, 0.04642096161842346, -0.1262640655040741, -0.03484616428613663, -0.006579544860869646, -0.12377617508172989, -0.048156652599573135, 0.051547277718782425, -0.1288798600435257, -0.00587118836119771, -0.11713875830173492, -0.1429833173751831, -0.10499152541160583, 0.1623644232749939, 0.10691490024328232, 0.1330689638853073, 0.02788601815700531, -0.11823563277721405, -0.013219941407442093, 0.007655378896743059, 0.09899312257766724, -0.07693459838628769, -0.007321793120354414, -0.0927569642663002, -0.07093168795108795, 0.06859689950942993, 0.020621519535779953, -0.005531813949346542, -0.012459143064916134, -0.003385043004527688, 0.11106660217046738, 0.0949198380112648, 0.1410808563232422, 0.11667418479919434, -0.0442311093211174, 0.023490382358431816, -0.0031581639777868986, -0.0657946988940239, 0.12660616636276245, -0.10842669755220413, 0.05281122401356697, -0.0056762234307825565, 0.026835229247808456, 0.0654086172580719, 0.06205105781555176, 0.04007932171225548, 0.05653894692659378, -0.14704595506191254, 0.03320671617984772, -0.12640990316867828, 0.05446135625243187], [-0.03803149238228798, 0.043421246111392975, -0.11296263337135315, -0.14303171634674072, 0.04065406695008278, -0.15251675248146057, -0.11254169791936874, -0.1443999707698822, 0.1342218965291977, 0.03664335235953331, -0.011167776770889759, -0.08515549451112747, -0.08028508722782135, 0.09398362040519714, 0.07713702321052551, -0.08565317094326019, -0.05361669883131981, -0.15095123648643494, 0.03918815404176712, 0.06276962161064148, -0.017349256202578545, -0.14830847084522247, -0.0681043341755867, 0.1437751054763794, -0.01879214309155941, 0.05209959298372269, 0.01682104356586933, -0.0813060849905014, -0.11753974854946136, -0.10194433480501175, -0.0057016643695533276, 0.05573301017284393, 0.04821498692035675, 0.010171295143663883, -0.16497045755386353, 0.088079534471035, 0.11935079097747803, -0.06991646438837051, 0.15368269383907318, 0.0020863155368715525, 0.04061312600970268, 0.07970350235700607, 0.12060024589300156, 0.05462361127138138, -0.13266943395137787, -0.07395762950181961, 0.07320261001586914, -0.07758605480194092, -0.0627794861793518, -0.05718968063592911, -0.0404176265001297, 0.0009850396309047937, 0.13452374935150146, -0.043188758194446564, -0.1557895988225937, -0.08168639242649078, 0.11675505340099335, 0.02721439301967621, -0.1090492382645607, 0.09731929749250412, 0.11939851939678192, 0.10724548995494843, 0.10920458287000656, -0.018328601494431496, 0.020147595554590225, -0.02486695721745491, 0.1084006056189537, 0.060476746410131454, 0.09084382653236389, 0.0040980069898068905, -0.07473579794168472, -0.0299959946423769, 0.0841345340013504, 0.104002945125103, -0.1618918478488922, -0.07304410636425018, -0.11713273078203201, 0.04492044076323509, 0.10015290230512619, -0.1049579530954361, 0.024645812809467316, 0.04853523150086403, 0.029700318351387978, -0.021300990134477615, 0.00787546020001173, 0.03027917817234993, -0.008515255525708199, 0.04210032522678375, 0.06272376328706741, 0.08721628785133362, -0.00784356240183115, 0.09085670858621597, -0.06486472487449646, 0.016825342550873756, -0.09121771156787872, -0.04508063197135925, 0.09204387664794922, 0.09514109790325165, -0.11834213137626648, -0.07162627577781677, 0.12303443998098373, -0.07950111478567123, 0.045926664024591446, 0.10034220665693283, 0.006077814847230911, -0.09563256055116653, -0.0030305027030408382, 0.057203881442546844, -0.027002641931176186, -0.10624608397483826, 0.08721394836902618, -0.11690593510866165, 0.11670908331871033, -0.10299105197191238, 0.12179296463727951, -0.0658235102891922, -0.017406905069947243, -0.09920889139175415, -0.07165048271417618, 0.11639944463968277, 0.1703202873468399, -0.02215483970940113, -0.05243413522839546, 0.032339904457330704, 0.12159992754459381, -0.010057536885142326, 0.018394356593489647, -0.01664058491587639, 0.05934033542871475, -0.14168672263622284, 0.008803898468613625, -0.06798437237739563, 0.05956149846315384, -0.12628546357154846, 0.03739194571971893, 0.001408537500537932, 0.06225595250725746, -0.09970302879810333, 0.0037005047779530287, 0.038027409464120865, -0.009552565403282642, -0.0037268635351210833, 0.0818026214838028, 0.07262835651636124, -0.05276401340961456, 0.04469010978937149, -0.010384892113506794, -0.10729282349348068, -0.15060746669769287, -0.030754949897527695, 0.05372503027319908, 0.013634378090500832, 0.08330442756414413, 0.010540477000176907, -0.01592903584241867, -0.09862225502729416, -0.05901354178786278, -0.049342501908540726, -0.14989961683750153, -0.10113420337438583, 0.03746306523680687, 0.08752867579460144, 0.17522230744361877, 0.12219595909118652, 0.0004562445101328194, 0.002606151392683387, 0.0067039355635643005, 0.0363171361386776, -0.11999152600765228, 0.016279436647892, 0.12907448410987854, -0.015287108719348907, 0.03781900927424431, 0.00817379355430603, -0.11193051934242249, 0.012233613058924675, -0.018011318519711494, -0.1653979867696762, -0.10737884044647217, 0.0845213383436203, -0.030668744817376137, -0.002243656199425459, -0.056847501546144485, 0.08595527708530426, -0.07987149804830551, -0.03636655583977699, 0.08488824218511581, 0.10418590158224106, -0.12967944145202637, 0.049455612897872925, 0.014728968031704426, 0.01685321144759655, -0.10347287356853485, -0.07984090596437454, 0.07078789174556732, -0.02502463199198246, -0.031609367579221725, 0.08706361055374146, 0.08010300248861313, -0.12853851914405823, 0.058578457683324814, -0.14612410962581635, 0.11472967267036438, 0.032838065177202225, 0.1485535353422165, -0.06287705898284912, -0.10768172889947891, -0.028992922976613045, -0.06823252141475677, -0.06184418499469757, 0.13246382772922516, -0.08820798993110657, -0.06842409819364548, 0.0913461297750473, -0.05744774639606476, 0.03313838317990303, -0.0852474644780159, -0.01064703892916441, -0.0872230976819992, -0.10490107536315918, 0.09146338701248169, -0.13115563988685608, -0.016473906114697456, -0.0623977966606617, -0.015222628600895405, 0.1450434774160385, -0.10487902164459229, 0.06394930928945541, 0.11474084854125977, 0.013962831348180771, 0.1287364810705185, -0.08305682986974716, -0.05301433056592941, -0.07277358323335648, 0.09487784653902054, 0.14216752350330353, -0.08056274056434631, 0.021486910060048103, -0.044034846127033234, 0.0418044775724411, 0.004853425081819296, 0.15620554983615875, 0.04771551862359047, -0.009466868825256824, -0.10480912029743195, -0.13840621709823608, -0.03793486952781677, -0.10911966860294342, 0.08993862569332123, 0.0084623908624053, 0.04883807525038719, -0.06741829216480255, 0.08947573602199554, 0.03322956711053848, -0.15162110328674316, 0.047002047300338745], [0.041125379502773285, -0.09471344202756882, 0.03172355145215988, -0.005000708624720573, -0.07936517149209976, 0.1015995666384697, 0.10660112649202347, 0.08125384896993637, 0.02179616503417492, -0.005695602390915155, 0.024960186332464218, 0.027540214359760284, -0.10643309354782104, -0.0033906602766364813, 0.07552911341190338, -0.04137338325381279, -0.14568400382995605, 0.10096469521522522, -0.104986272752285, -0.08041636645793915, -0.1065681129693985, -0.021816786378622055, 0.04727250710129738, 0.015193616040050983, -0.09247754514217377, 0.13034974038600922, 0.12208723276853561, 0.07726208865642548, -0.030170822516083717, -0.02662038989365101, 0.16336403787136078, 0.07442837953567505, -0.13293777406215668, -0.08008463680744171, 0.010100449435412884, 0.10214584320783615, 0.038778871297836304, 0.006415986455976963, -0.09737041592597961, 0.05470723286271095, 0.09141913056373596, -0.06454046815633774, 0.046629708260297775, 0.1081056222319603, -0.06829088181257248, -0.03220083564519882, -0.061499472707509995, 0.08169528841972351, -0.014935125596821308, 0.0634877011179924, 0.09630606323480606, 0.004055990371853113, 0.12626026570796967, -0.014882292598485947, -0.0885712280869484, 0.0866100862622261, 0.06948202848434448, -0.10729110985994339, 0.09964405745267868, 0.09258655458688736, -0.04133819043636322, 0.10828502476215363, -0.04567737132310867, -0.09342259168624878, -0.06477309763431549, 0.1346895843744278, 0.040465112775564194, -0.1016530767083168, 0.005886431317776442, 0.08188015967607498, -0.08774542063474655, 0.13018682599067688, 0.10425351560115814, 0.020511094480752945, 0.15644070506095886, -0.04656196013092995, 0.14677563309669495, 0.055066537111997604, -0.014974173158407211, -0.06836584955453873, 0.07090748846530914, -0.02799222804605961, -0.08025320619344711, -0.14150764048099518, 0.03390606492757797, -0.006124489475041628, 0.02586725540459156, 0.08756686002016068, -0.075477235019207, 0.019195593893527985, -0.06106896325945854, 0.08650436252355576, 0.1098608747124672, -0.0020782186184078455, 0.040326040238142014, -0.0730811133980751, -0.049039922654628754, 0.086061991751194, -0.040367983281612396, -0.00981375202536583, -0.05045461654663086, 0.05601224675774574, -0.01779595948755741, -0.10864800214767456, 0.02323073148727417, 0.081233449280262, -0.10598859190940857, -0.08991153538227081, -0.06281740218400955, -0.02654043398797512, -0.01481493841856718, 0.06553320586681366, 0.027395738288760185, 0.0613701231777668, -0.028517406433820724, 0.05572481453418732, 0.029646070674061775, 0.11667343229055405, 0.040008533746004105, -0.09535983204841614, 0.03301107883453369, -0.03025461919605732, 0.038363318890333176, -0.08295333385467529, -0.09518402069807053, 0.12598572671413422, -0.10412133485078812, 0.10984516888856888, -0.059091027826070786, 0.025560103356838226, 0.08370194584131241, 0.01618671603500843, -0.02381080947816372, -0.07527270913124084, -0.14868226647377014, -0.07681840658187866, 0.01304191816598177, 0.10524725914001465, 0.06401253491640091, 0.09352893382310867, 0.11051812022924423, 0.07106953859329224, -0.10908684879541397, 0.062143828719854355, 0.024317217990756035, 0.015759572386741638, -0.05486900359392166, 0.002014550380408764, 0.031550996005535126, 0.07545739412307739, -0.010286145843565464, -0.020851340144872665, 0.14758345484733582, -0.10476700961589813, -0.03898751363158226, -0.11249348521232605, 0.07860661298036575, 0.11753571778535843, -0.0240489412099123, 0.12023147195577621, -0.06447383761405945, 0.10603664070367813, 0.03868849575519562, 0.04044066369533539, -0.09230045229196548, 0.12832312285900116, 0.0699974000453949, -0.015635043382644653, 0.052714429795742035, -0.07204040884971619, 0.11971062421798706, -0.11200214922428131, 0.03651938587427139, -0.013726350851356983, -0.14969395101070404, -0.08752534538507462, -0.10388193279504776, 0.024488067254424095, -0.026237493380904198, 0.06210799887776375, -0.07766135782003403, -0.05582736060023308, 0.04838685691356659, -0.09846067428588867, 0.12686273455619812, 0.12330995500087738, 0.05628228932619095, 0.03708989918231964, 0.09275902807712555, -0.06356506049633026, -0.1414942890405655, -0.039493247866630554, 0.04420396313071251, -0.09795841574668884, -0.01622813381254673, 0.15201056003570557, 0.08697193115949631, -0.014120562933385372, -0.09729448705911636, 0.08872494846582413, -0.004431057721376419, -0.11028774827718735, -0.1387585699558258, 0.08467917144298553, 0.0238302331417799, 0.10497187077999115, 0.07474590092897415, -0.029416587203741074, 0.009780513122677803, -0.026055442169308662, -0.04572976753115654, 0.002452802611514926, 0.07210743427276611, -0.005875785369426012, 0.13792993128299713, 0.02469599060714245, 0.032117392867803574, 0.03574761748313904, -0.009269330650568008, 0.0698060616850853, -0.11548543721437454, -0.020733535289764404, -0.1259840577840805, -0.010181647725403309, -0.008009796030819416, 0.013866795226931572, 0.11155913770198822, 0.011726257391273975, 0.07917893677949905, -0.001688231248408556, 0.03131210803985596, -0.12878775596618652, -0.02003783918917179, -0.031247952952980995, -0.016186432912945747, -0.14622050523757935, -0.12685830891132355, -0.05885588377714157, 0.13942134380340576, -0.08038785308599472, -0.023177895694971085, -0.1120530441403389, -0.0019679872784763575, -0.0566120520234108, -0.10977540910243988, 0.05417713522911072, -0.1098080575466156, -0.10578203946352005, -0.05875733122229576, -0.15149874985218048, -0.1137632206082344, -0.026255471631884575, 0.08666914701461792, 0.024931445717811584, 0.0014325155643746257, -0.03483450785279274], [0.1313500851392746, -0.04237307980656624, -0.15109866857528687, 0.04068640619516373, -0.12061429023742676, -0.03521467000246048, 0.021375343203544617, 0.11067431420087814, 0.004756431560963392, 0.018635286018252373, 0.1768040508031845, -0.12971046566963196, -0.05892087146639824, -0.004166753496974707, -0.053936917334795, -0.0556834451854229, 0.13920867443084717, 0.015623477287590504, 0.0398801788687706, -0.08043927699327469, 0.0816292092204094, 0.11360742896795273, 0.05610867962241173, -0.13297586143016815, 0.03991074860095978, -0.09223765134811401, -0.0884256362915039, -0.09426265209913254, 0.04295368120074272, 0.053265493363142014, -0.11465699970722198, -0.014478207565844059, -0.04630217328667641, -0.07511807978153229, -0.04167679324746132, -0.026180068030953407, 0.10980745404958725, -0.10849704593420029, -0.14350451529026031, -0.0553128719329834, 0.11902673542499542, 0.09033967554569244, 0.08088024705648422, -0.03973779082298279, -0.013789311051368713, -0.09183350950479507, 0.008635465055704117, 0.08834029734134674, -0.016512887552380562, 0.050118811428546906, 0.039248719811439514, -0.09349927306175232, 0.055869314819574356, -0.12362004816532135, 0.03914688155055046, -0.13080203533172607, -0.07427585124969482, 0.021674590185284615, -0.08673172444105148, 0.02399362251162529, 0.04571286588907242, -0.0777965858578682, -0.14074751734733582, 0.061640623956918716, -0.019677039235830307, 0.034679196774959564, 0.049839116632938385, 0.11044737696647644, 0.03624993562698364, -0.031083013862371445, 0.05914696678519249, -0.1093585342168808, -0.06749972701072693, 0.08359786868095398, -0.024195311591029167, 0.1050042137503624, 0.02904033660888672, 0.10142940282821655, 0.1262485533952713, -0.027914119884371758, -0.020506344735622406, 0.02471899427473545, -0.04571289196610451, 0.05701136961579323, 0.05281829461455345, 0.003183190943673253, -0.004413502756506205, -0.058116376399993896, -0.0061681028455495834, -0.0970192477107048, 0.07438742369413376, -0.012297467328608036, -0.07313477247953415, -0.15891392529010773, 0.06822102516889572, 0.01171293668448925, 0.009633531793951988, -0.13015924394130707, -0.052238911390304565, -0.07002881169319153, 0.08950982987880707, 0.07042553275823593, -0.0205912534147501, -0.024699660018086433, 0.08446476608514786, 0.01337274257093668, 0.08425261080265045, -0.09165093302726746, -0.00955223012715578, -0.07818819582462311, -0.0063992817886173725, 0.13410307466983795, -0.008851668797433376, -0.1553981751203537, -0.12791866064071655, -0.06480042636394501, -0.10514599829912186, -0.09149967133998871, 0.08820249140262604, 0.010911067016422749, -0.0245779100805521, 0.0847615972161293, -0.06553564220666885, 0.13326087594032288, -0.01697317324578762, 0.12566682696342468, 0.04103758558630943, 0.06378752738237381, 0.1045965850353241, -0.03162102401256561, 0.0962720513343811, -0.027227532118558884, -0.05282719060778618, -0.007942832075059414, -0.00612365547567606, -0.09214790910482407, 0.05708692967891693, 0.004834705963730812, 0.02726692706346512, 0.101774662733078, -0.020214948803186417, -0.058562200516462326, -0.021930258721113205, -0.12517565488815308, -0.10739922523498535, -0.07742459326982498, -0.06048214063048363, 0.08233169466257095, -0.016670633107423782, 0.012001072987914085, 0.015914123505353928, -0.129796102643013, 0.023872073739767075, 0.06174908205866814, 0.017494775354862213, -0.012469202280044556, 0.10529822111129761, 0.10307563841342926, 0.04232108220458031, -0.004231744445860386, 0.0014605189207941294, -0.10452209413051605, -0.01659923605620861, -0.0878424420952797, -0.01930750161409378, 0.04743029549717903, -0.0992354303598404, 0.11944224685430527, 0.13790719211101532, 0.09082550555467606, 0.050018683075904846, 0.11797769367694855, -0.11519395560026169, 0.11514697968959808, -0.08589398860931396, 0.10966246575117111, -0.03527006134390831, 0.11710058897733688, 0.08376602083444595, -0.07783190906047821, 0.02858111634850502, 0.09413948655128479, -0.005105110350996256, 0.04709018021821976, 0.012375226244330406, -0.05327970162034035, -0.09275850653648376, -0.09258715063333511, 0.11310521513223648, 0.016663499176502228, 0.016141029074788094, 0.019230712205171585, -0.015241350047290325, 0.08099816739559174, 0.09862707555294037, 0.01711975783109665, 0.05804409831762314, 0.04791193827986717, 0.0026147039607167244, 0.15275467932224274, -0.04777095839381218, -0.13849280774593353, 0.12817753851413727, 0.01008780486881733, 0.06683853268623352, 0.10932659357786179, -0.13980764150619507, 0.1323605179786682, -0.011716566979885101, -0.0027945865876972675, 0.060959670692682266, 0.13078011572360992, -0.1438421905040741, -0.04079236835241318, 0.01756489835679531, 0.016001133248209953, 0.06232466548681259, -0.1300412267446518, -0.007394568063318729, -0.015782658010721207, 0.12294601649045944, -0.037265267223119736, -0.046273574233055115, 0.11168111860752106, -0.12527696788311005, 0.16470439732074738, 0.06748770922422409, 0.11401892453432083, -0.06979365646839142, -0.14698752760887146, 0.08680256456136703, 0.12016962468624115, 0.06017531454563141, -0.09250262379646301, 0.0562213696539402, 0.10576896369457245, 0.03639033064246178, 0.07836882770061493, 0.12882868945598602, 0.058274079114198685, -0.13223332166671753, 0.009742999449372292, -0.11146300286054611, 0.01743897795677185, 0.019975917413830757, -0.16438831388950348, -0.037537768483161926, -0.11138544976711273, 0.08387598395347595, 0.117685467004776, -0.08138483762741089, 0.13351111114025116, -0.019715266302227974, -0.02954222448170185, -0.14571429789066315, -0.016034934669733047], [0.04092089831829071, 0.060080546885728836, -0.10150915384292603, -0.14294518530368805, -0.04740842059254646, -0.11921444535255432, -0.04421773925423622, -0.05104762688279152, 0.10479280352592468, 0.0765385776758194, 0.0020382010843604803, 0.07102083414793015, -0.0760156661272049, 0.0022973751183599234, -0.0440378300845623, 0.005657466594129801, 0.1540825515985489, -0.01520481426268816, -0.04056097939610481, 0.061188530176877975, -0.05901441350579262, 0.06795981526374817, 0.016143037006258965, -0.04096807539463043, 0.062085360288619995, 0.0326632484793663, -0.09408780932426453, -0.004944965243339539, -0.10897667706012726, 0.020142516121268272, 0.08258495479822159, 0.12036518007516861, 0.026163283735513687, 0.037888053804636, -0.13992798328399658, 0.03914584964513779, -0.0172871146351099, 0.007743228226900101, -0.024406587705016136, -0.12090808153152466, 0.006269712466746569, -0.10008720308542252, 0.10088932514190674, -0.027364328503608704, -0.17518484592437744, -0.03227640315890312, -0.1526208221912384, -0.0704459473490715, 0.028413822874426842, -0.16082479059696198, 0.08579636365175247, -0.14707794785499573, -0.06334153562784195, 0.0742650255560875, -0.11711584776639938, -0.12797695398330688, -0.014254137873649597, -0.09612143039703369, 0.042010772973299026, -0.03429379686713219, 0.12956203520298004, 0.1196007952094078, -0.02872510813176632, 0.1420803666114807, -0.061870820820331573, 0.12644894421100616, -0.08733553439378738, 0.06148233264684677, 0.02492442913353443, -0.06716231256723404, 0.008533373475074768, 0.00884753093123436, -0.17329099774360657, -0.08271833509206772, 0.030835062265396118, 0.015036663971841335, 0.13906927406787872, 0.05157327279448509, 0.1430193930864334, 0.02651773765683174, -0.02426306903362274, -0.13492004573345184, 0.048910632729530334, -0.010456405580043793, -0.1469145119190216, 0.006647865753620863, 0.14273223280906677, 0.028492944315075874, 0.014907145872712135, -0.01549385767430067, -0.09711148589849472, -0.039766304194927216, -0.02610616758465767, -0.10268799215555191, 0.11034078896045685, -0.039167534559965134, 0.10982774198055267, 0.07162335515022278, -0.09784200042486191, 0.008459891192615032, 0.03297688812017441, 0.06888291984796524, -0.04449112340807915, 0.08600518107414246, 0.007529277820140123, -0.07739449292421341, -0.09152039885520935, 0.014941852539777756, 0.0571441687643528, -0.06631370633840561, 0.04567737132310867, -0.009276198223233223, 0.07946723699569702, -0.11103899031877518, 0.1352752149105072, -0.0943734347820282, -0.0008485192665830255, -0.10967098921537399, -0.11031506210565567, 0.031812090426683426, -0.048618610948324203, 0.07226315140724182, -0.166721373796463, -0.05178273841738701, -0.02034950628876686, -0.15807907283306122, -0.04374285414814949, -0.046824391931295395, 0.027075376361608505, -0.01750199683010578, 0.012890097685158253, -0.0004692545044235885, -0.15525682270526886, -0.039589542895555496, 0.125050887465477, -0.009673587046563625, 0.07866333425045013, -0.06297671049833298, 0.0379752442240715, 0.07012507319450378, -0.003020231146365404, 0.13178442418575287, -0.07431875914335251, -0.13955356180667877, 0.08281436562538147, 0.033883754163980484, -0.08934219181537628, -0.0668693482875824, -0.14073365926742554, -0.04282734915614128, 0.04654162377119064, -0.029154444113373756, -0.028589585795998573, -0.0019158362410962582, -0.11726690083742142, -0.07247999310493469, 0.037223685532808304, 0.09832466393709183, 0.051718421280384064, -0.14855052530765533, 0.10394531488418579, 0.09507030993700027, 0.1184152215719223, 0.04630440101027489, -0.026677096262574196, -0.043507169932127, -0.13205397129058838, -0.10494942963123322, -0.0937141478061676, 0.03938235342502594, 0.12433239072561264, 0.008526752702891827, -0.11973245441913605, 0.10610517859458923, 0.0890861451625824, 0.12243008613586426, 0.15939120948314667, -0.027927929535508156, 0.14121659100055695, -0.10810098797082901, -0.016874082386493683, -0.0887543186545372, -0.07094550132751465, -0.14458122849464417, 0.023393724113702774, 0.059053801000118256, 0.07692849636077881, -0.07910572737455368, 0.033112213015556335, -0.0015561823965981603, 0.007640148978680372, 0.07354481518268585, -0.07774155586957932, 0.004771060775965452, 0.11646489799022675, -0.08707962930202484, -0.0383278913795948, 0.1387915313243866, 0.07476173341274261, -0.1588699072599411, -0.056283093988895416, -0.17399820685386658, 0.08718584477901459, -0.008867661468684673, -0.052670855075120926, 0.15694138407707214, -0.019468137994408607, -0.03796028718352318, -0.004629313945770264, 0.0421198271214962, -0.1001938208937645, -0.08133041113615036, 0.06873734295368195, -0.02442895993590355, -0.034706152975559235, 0.002815093845129013, -0.10115369409322739, -0.12279810756444931, 0.019358443096280098, -0.054738979786634445, -0.13912609219551086, 0.053568121045827866, 0.0891827940940857, 0.03136182948946953, 0.12493016570806503, -0.03390499949455261, 0.1541573852300644, -0.09499813616275787, 0.11804967373609543, 0.11228946596384048, 0.07055205851793289, 0.14284461736679077, -0.02073868364095688, -0.04677250236272812, 0.02307838760316372, 0.03215822950005531, -0.1428118199110031, 0.021383512765169144, 0.15777236223220825, -0.08770160377025604, 0.06554121524095535, 0.13338804244995117, 0.1121021956205368, 0.11759835481643677, 0.02904963307082653, 0.09061765670776367, 0.11567411571741104, -0.13108310103416443, 0.01424028817564249, 0.07680683583021164, -0.030593374744057655, 0.07216338813304901, 0.041251543909311295, -0.11718019098043442, -0.02180672250688076, 0.0666184052824974], [0.026358885690569878, -0.10883335769176483, -0.09318114817142487, -0.021761545911431313, 0.12585830688476562, -0.09301528334617615, 0.05819820985198021, -0.054978836327791214, -0.013641097582876682, 0.1258927285671234, 0.024070443585515022, -0.09002968668937683, -0.011560959741473198, -0.11139204353094101, -0.008383722975850105, 0.0073439572006464005, -0.1276116669178009, -0.03340832144021988, -0.04527025297284126, 0.10359423607587814, 0.103883296251297, -0.09779037535190582, 0.055917318910360336, -0.02658918872475624, -0.03999744728207588, 0.09368055313825607, 0.1243511214852333, 0.108716681599617, 0.06135943531990051, -0.044787563383579254, 0.11523104459047318, -0.057785455137491226, -0.01178552582859993, -0.018938004970550537, 0.06934615969657898, -0.052444931119680405, -0.05900181829929352, 0.11377990990877151, -0.0933832973241806, 0.024586794897913933, -0.050810087472200394, -0.1553768515586853, -0.15182606875896454, -0.08877220004796982, 0.10640574246644974, -0.0776108130812645, 0.09866740554571152, 0.03428015485405922, -0.04599422216415405, 0.06080060452222824, 0.017816292122006416, 0.0958586260676384, -0.046504851430654526, -0.05567669868469238, 0.08577233552932739, 0.16089512407779694, 0.1126837208867073, -0.03360800817608833, 0.07109328359365463, -0.02194477617740631, -0.0050162444822490215, -0.08946026861667633, 0.061355382204055786, -0.11905502527952194, -0.018920226022601128, 0.11572922766208649, -0.08213043212890625, -0.1142425462603569, -0.08359994739294052, 0.1618703305721283, 0.030685100704431534, 0.009049895219504833, 0.1101495623588562, 0.10227470844984055, -0.0021182566415518522, 0.03564395383000374, 0.09442874789237976, 0.05716273933649063, -0.14407387375831604, 0.10739458352327347, -0.012552319094538689, -0.07502850145101547, -0.008977103047072887, -0.1271011084318161, -0.07081972062587738, 0.05565501004457474, -0.15104761719703674, -0.05614043027162552, 0.04123236984014511, -0.14305749535560608, 0.14540311694145203, -0.07757126539945602, -0.03425586596131325, -0.07009008526802063, -0.0653252825140953, -0.15294961631298065, 0.012026043608784676, 0.11842384934425354, -0.10354245454072952, 0.07315810769796371, 0.015562538057565689, 0.0738244280219078, 0.00289135635830462, -0.0827648863196373, -0.0783703625202179, 0.06705337017774582, 0.0954500362277031, -0.09174536168575287, 0.0014152523363009095, 0.13356339931488037, 0.06841452419757843, 0.13411301374435425, 0.038512978702783585, 0.0005453824414871633, 0.007004415150731802, 0.015021740458905697, -0.07152064144611359, 0.027840759605169296, 0.0341317355632782, -0.09531907737255096, 0.05320954695343971, 0.03511305898427963, 0.12949131429195404, -0.085748091340065, -0.06547821313142776, 0.06761523336172104, -0.08979491889476776, 0.07436851412057877, 0.06486425548791885, -0.09902030229568481, 0.04075061157345772, 0.03762631118297577, -0.012087241746485233, 0.12400994449853897, 0.07076037675142288, 0.044099219143390656, 0.01589128188788891, -0.03937440738081932, 0.08100050687789917, 0.07484512776136398, 0.09568105638027191, 0.11250286549329758, -0.10071516782045364, 0.031662143766880035, -0.09440293163061142, -0.011105325073003769, 0.007555426564067602, 0.15292051434516907, 0.1354123204946518, 0.03479443117976189, 0.04320955649018288, 0.03837163373827934, 0.14030912518501282, -0.016881830990314484, -0.018478596583008766, -0.06808334589004517, 0.094810850918293, 0.08743679523468018, 0.005461906082928181, -0.09840935468673706, 0.08257046341896057, -0.11266430467367172, 0.03316137567162514, 0.11070144921541214, 0.020910663530230522, -0.04748111590743065, 0.07207410782575607, 0.1239151805639267, -0.020090751349925995, 0.08846458047628403, -0.08886568248271942, -0.03191179409623146, 0.0285403560847044, 0.06141621619462967, -0.12594299018383026, 0.054606057703495026, 0.04731171950697899, 0.00872899778187275, -0.07047224044799805, 0.1311490535736084, -0.118855781853199, -0.02744973823428154, -0.07874709367752075, 0.1140659749507904, 0.029818685725331306, 0.11055196821689606, -0.06388683617115021, 0.06932026147842407, 0.043164435774087906, 0.1187305748462677, 0.07766532152891159, -0.11060819029808044, 0.02101251669228077, -0.09774543344974518, -0.007364206947386265, -0.024288762360811234, -0.06455658376216888, -0.03461343050003052, 0.039133086800575256, -0.024184726178646088, 0.0347418487071991, -0.04250751808285713, -0.15372900664806366, 0.09659779071807861, -0.08424358069896698, -0.012345860712230206, 0.02614186890423298, -0.09368430823087692, -0.10820388793945312, -0.016749147325754166, 0.10926030576229095, 0.0604141540825367, 0.04540490359067917, 0.008904543705284595, -0.03694687411189079, 0.022023681551218033, 0.07302223891019821, -0.09387427568435669, -0.09474273771047592, -0.03865370899438858, -0.0659370943903923, 0.15027189254760742, -0.14026778936386108, 0.01740153320133686, -0.10085823386907578, 0.10528918355703354, -0.09686004370450974, -0.02597825601696968, 0.0811084508895874, 0.04646718129515648, -0.027053358033299446, -0.06378642469644547, 0.017494814470410347, -0.054396092891693115, -0.08578313887119293, -0.017408600077033043, -0.08888047188520432, -0.031755413860082626, 0.06684467941522598, 0.09181738644838333, 0.008368699811398983, -0.1463717222213745, -0.1467144936323166, 0.10534697771072388, -0.07001230865716934, -0.05747063085436821, 0.032377734780311584, 0.040879011154174805, 0.04943617060780525, -0.07913390547037125, -0.15276050567626953, 0.1416577398777008, -0.058003753423690796, 0.06815429031848907, 0.05158165097236633, 0.05802399292588234], [-0.021672092378139496, -0.06422828882932663, -0.013438650406897068, 0.14824821054935455, 0.10060514509677887, -0.11024071276187897, -0.08429768681526184, 0.10116734355688095, 0.03414261341094971, 0.10028694570064545, -0.03535240516066551, -0.013671680353581905, 0.04784645140171051, 0.07466862350702286, -0.054267752915620804, -0.15665793418884277, 0.049852658063173294, -0.10245738178491592, 0.003986274357885122, 0.09788094460964203, -0.016495853662490845, 0.0856555700302124, -0.11662448197603226, 0.043216899037361145, 0.142022043466568, -0.07142702490091324, -0.1386629045009613, -0.015769340097904205, -0.09314604103565216, 0.04596957564353943, 0.08310560882091522, 0.014994175173342228, -0.08759245276451111, -0.058650072664022446, 0.10358674079179764, -0.12150870263576508, 0.07716751843690872, 0.020430324599146843, -0.016297902911901474, -0.06230558082461357, 0.06304800510406494, -0.06125834956765175, -0.03298286721110344, 0.08315140008926392, 0.026602815836668015, -0.08978601545095444, -0.08302169293165207, -0.08896779268980026, -0.12044604122638702, -0.10167033225297928, -0.15121199190616608, -0.022229820489883423, 0.005096755921840668, 0.07128188014030457, 0.06903815269470215, -0.16162702441215515, 0.1837402880191803, 0.14259567856788635, 0.03994263708591461, 0.10115064680576324, 0.15185293555259705, 0.05014198645949364, -0.12244999408721924, 0.07407727837562561, 0.11640600115060806, 0.045669298619031906, 0.013628384098410606, -0.07882080227136612, -0.06565532833337784, 0.09349129348993301, 0.026522116735577583, -0.03868788108229637, -0.0618373304605484, -0.012808311730623245, 0.13193273544311523, 0.09228862076997757, 0.037553928792476654, -0.0016591983148828149, 0.0549970380961895, -0.09578204900026321, 0.0855826884508133, -0.0227534007281065, -0.028151052072644234, 0.07226987928152084, 0.1365516185760498, -0.16918180882930756, 0.13119590282440186, -0.018728790804743767, -0.04170752689242363, -0.12691646814346313, -0.07584292441606522, 0.035305947065353394, -0.12265933305025101, -0.038274481892585754, 0.1292695701122284, -0.13404777646064758, 0.12844562530517578, -0.04125955328345299, 0.02512979693710804, -0.06512858718633652, -0.03993638977408409, -0.0538107194006443, -0.1508350819349289, -0.021204721182584763, -0.002870857948437333, 0.09332631528377533, 0.12913239002227783, 0.05384034290909767, -0.08518994599580765, 0.01010002288967371, -0.07375336438417435, -0.05908903107047081, -0.004690700210630894, -0.020720111206173897, -0.06727210432291031, -0.07451076060533524, 0.054992787539958954, 0.1230691447854042, -0.03971574455499649, 0.12903733551502228, 0.16815678775310516, -0.0670032650232315, 0.004609649535268545, -0.011931574903428555, 0.1503061056137085, 0.10618692636489868, -0.09960413724184036, -0.007912559434771538, -0.02678784169256687, 0.014587538316845894, -0.09697729349136353, 0.0929497703909874, 0.01724396087229252, 0.14036397635936737, 0.07503648847341537, 0.07820091396570206, 0.04015817120671272, 0.03570772334933281, -0.12556768953800201, 0.06493910402059555, -0.08351100236177444, 0.05304154008626938, -0.020264064893126488, -0.15110883116722107, -0.06965775787830353, -0.12016648054122925, 0.06823208928108215, 0.01578303426504135, -0.016817601397633553, -0.05483013391494751, -0.09718404710292816, -0.14093387126922607, -0.04363996163010597, 0.13019856810569763, -0.03314885124564171, -0.030732598155736923, -0.11523990333080292, -0.02164567820727825, -0.008473170921206474, -0.006416124291718006, -0.10593972355127335, -0.13753418624401093, 0.017665570601820946, -0.05244407802820206, -0.10448530316352844, 0.1629636138677597, 0.007037614472210407, 0.05032011494040489, 0.0047097657807171345, 0.007786125876009464, 0.03422703966498375, 0.07614924758672714, 0.028659112751483917, -0.055220067501068115, 0.006721952930092812, 0.011282951571047306, 0.08851934969425201, 0.09683124721050262, -0.011254438199102879, -0.13690732419490814, 0.07334300875663757, -0.1010340079665184, -0.04114091396331787, -0.14162012934684753, 0.03326468542218208, -0.07449452579021454, -0.06428782641887665, 0.08644788712263107, -0.02928215079009533, 0.06008033826947212, 0.008482071571052074, -0.11355960369110107, 0.046564050018787384, -0.10715553164482117, -0.031154494732618332, 0.05555334314703941, -0.007761592976748943, 0.06129652261734009, -0.08164311200380325, -0.10845692455768585, 0.09080304205417633, -0.028013400733470917, 0.12108056247234344, 0.08906380087137222, 0.07717552036046982, 0.0007833770359866321, -0.07471661269664764, 0.11866232752799988, 0.0012005361495539546, -0.09549837559461594, 0.12430420517921448, 0.11791746318340302, -0.037289053201675415, -0.1455744057893753, -0.07542570680379868, 0.05808284878730774, 0.1538463532924652, -0.10748418420553207, -0.06528859585523605, 0.10488630086183548, 0.027354618534445763, 0.019424794241786003, 0.16878925263881683, -0.08544572442770004, 0.026975926011800766, -0.06580962240695953, -0.042232248932123184, 0.1372581422328949, -0.04999285191297531, 0.11041286587715149, 0.050227854400873184, -0.014374921098351479, -0.09946563094854355, -0.06447776407003403, -0.044582270085811615, -0.08133959770202637, -0.0367150641977787, 0.0019267973257228732, 0.09197966009378433, 0.10122134536504745, 0.02743123658001423, -0.11432800441980362, -0.08688028156757355, 0.08285214751958847, 0.05024281144142151, -0.17722924053668976, 0.08496502041816711, 0.06293211877346039, 0.00785264652222395, -0.08343105018138885, 0.09590080380439758, -0.0038287590723484755, 0.06567595899105072, 0.07355105131864548, 0.05600854381918907, -0.01544440258294344], [-0.10977250337600708, 0.061268217861652374, 0.06117817759513855, 0.09444641321897507, -0.10702625662088394, -0.14277838170528412, 0.15035311877727509, 0.09561275690793991, 0.13535423576831818, 0.03344181552529335, 0.04769093915820122, 0.003763793967664242, 0.08526287972927094, 0.01974315010011196, 0.03841656073927879, -0.12284106761217117, 0.027526212856173515, 0.026633016765117645, -0.06563913077116013, -0.0655883252620697, -0.018660442903637886, -0.10922015458345413, -0.06274040043354034, -0.06077443063259125, 0.15168336033821106, 0.011392259038984776, -0.04919474571943283, -0.16586238145828247, 0.008952767588198185, -0.06661315262317657, 0.13124288618564606, 0.08745191991329193, 0.06772424280643463, -0.02196539007127285, 0.03380121290683746, -0.08867736160755157, 0.146405428647995, 0.06019553542137146, -0.007976406253874302, -0.07088334113359451, -0.11847119778394699, 0.08098101615905762, -0.04546121880412102, 0.04272428900003433, -0.11071699112653732, 0.005686411168426275, 0.04544245824217796, 0.05258076637983322, 0.03800847753882408, -0.12901757657527924, -0.10099295526742935, 0.06440173834562302, -0.045570023357868195, -0.01639377325773239, -0.18648655712604523, -0.10104475915431976, -0.118317149579525, 0.05050545558333397, -0.07958944886922836, 0.040554679930210114, -0.05798904225230217, 0.057607244700193405, -0.060128696262836456, 0.11832147091627121, 0.09325113147497177, -0.035955023020505905, 0.10385563969612122, 0.13891172409057617, 0.11576048284769058, 0.06343713402748108, -0.10043696314096451, 0.008433336392045021, -0.1625889092683792, -0.0955035537481308, 0.13028907775878906, -0.11022691428661346, 0.09238573163747787, 0.06357315182685852, 0.12401735037565231, 0.10956867039203644, -0.04805189371109009, -0.13456518948078156, -0.02939852885901928, -0.14544981718063354, -0.1691458374261856, 0.008356461301445961, 0.07327299565076828, 0.04010232165455818, -0.011070553213357925, 0.04330240562558174, -0.07723162323236465, -0.17209342122077942, 0.07094717025756836, 0.03284906968474388, 0.11000160872936249, -0.17296361923217773, 0.1082640141248703, 0.033758509904146194, -0.008229146711528301, 0.015191174112260342, 0.12455720454454422, -0.023218853399157524, 0.04229733347892761, 0.16426591575145721, 0.06174984574317932, -0.038395728915929794, 0.017462264746427536, -0.06515339761972427, -0.03865823894739151, -0.004263915121555328, 0.10959632694721222, 0.1406276375055313, -0.04864255338907242, -0.027596931904554367, -0.04669301584362984, 0.09699294716119766, 0.1604558825492859, 0.06821224838495255, 0.07816572487354279, 0.09814111143350601, 0.013572579249739647, -0.12850406765937805, -0.05390925705432892, 0.03449267894029617, 0.06646815687417984, -0.06008423492312431, 0.17496055364608765, -0.11987660080194473, 0.04412713274359703, 0.06880798190832138, 0.07394459843635559, 0.020832661539316177, -0.0843948945403099, -0.11730527132749557, 0.04778235778212547, -0.005157259292900562, -0.05696963146328926, 0.025862928479909897, -0.05209849774837494, 0.022824862971901894, 0.08893901854753494, -0.05070281773805618, -0.13094811141490936, 0.05075342580676079, 0.04127660021185875, 0.010598566383123398, 0.10114650428295135, 0.09125185012817383, 0.12234467267990112, 0.03260455280542374, -0.03400633484125137, -0.03996974974870682, -0.06883051246404648, 0.03262336552143097, -0.04430317133665085, 0.09015340358018875, 0.04966732859611511, 0.021006381139159203, -0.07483790069818497, -0.1374489814043045, -0.13067176938056946, -0.01752903312444687, -0.07830573618412018, 0.09061280637979507, 0.11595851182937622, 0.08056584000587463, 0.0158516988158226, -0.1057344526052475, 0.07484345883131027, 0.1422748863697052, -0.01624120958149433, 0.08886288851499557, -0.07082297652959824, 0.08401110768318176, 0.10064195096492767, -0.07700175046920776, 0.14345614612102509, -0.0026047914288938046, 0.15006911754608154, 0.010788004845380783, 0.09127158671617508, -0.11753373593091965, -0.008609120734035969, -0.1671477109193802, 0.1327522248029709, 0.08172423392534256, 0.1452750712633133, 0.11718178540468216, -0.15575003623962402, -0.06505380570888519, -0.06834620982408524, -0.03950579836964607, -0.09405644983053207, 0.029092373326420784, -0.04729417711496353, -0.13601385056972504, -0.1273241639137268, -0.062403641641139984, 0.14927159249782562, 0.02760285697877407, 0.15871810913085938, -0.05377969145774841, -0.03349337354302406, 0.08951373398303986, -0.0038549264427274466, -0.060594093054533005, -0.11027511209249496, -0.06570424139499664, -0.07080083340406418, -0.036859020590782166, 0.038126226514577866, -0.12077520787715912, -0.0868697315454483, 0.04301059991121292, -0.13513658940792084, -0.008951548486948013, 0.089943066239357, -0.13447655737400055, -0.07612195611000061, 0.034403637051582336, -0.08624213933944702, -0.006029087118804455, 0.033907294273376465, -0.14207319915294647, 0.05831368267536163, 0.015666034072637558, -0.048955466598272324, -0.016382606700062752, -0.04444766417145729, -0.008286121301352978, -0.1121639609336853, -0.010083900764584541, -0.09634517133235931, 0.12251884490251541, -0.07149485498666763, 0.00022156206250656396, -0.0641658827662468, 0.060195744037628174, 0.03639625385403633, 0.02130216546356678, 0.0530439168214798, 0.1000324934720993, -0.07981497049331665, -0.016562383621931076, 0.12640692293643951, 0.12110515683889389, 0.14061303436756134, -0.06621904671192169, -0.03962186723947525, 0.02362140640616417, 0.0832105353474617, 0.03680132329463959, -0.014994719065725803, 0.057038813829422, -0.05834614858031273, 0.09614134579896927], [0.0016936591127887368, -0.026226049289107323, 0.010887120850384235, 0.09725432097911835, -0.07215780019760132, -0.10551557689905167, 0.14104659855365753, -0.09789661318063736, 0.05056333169341087, 0.07549024373292923, -0.04645641893148422, 0.05025748908519745, -0.07007427513599396, 0.052286550402641296, -0.028725767508149147, 0.0049689714796841145, -0.11915180832147598, 0.020887238904833794, -0.086626797914505, -0.03880728781223297, -0.09930293262004852, -0.059920746833086014, 0.09222161769866943, -0.04468657821416855, 0.09985697269439697, 0.1399269998073578, 0.02050548419356346, -0.0896068587899208, 0.014282195828855038, 0.0800115242600441, 0.007047716062515974, -0.09863302111625671, -0.015979764983057976, 0.08067672699689865, 0.10647767037153244, -0.05949612334370613, 0.050971437245607376, -0.07397597283124924, -0.06872618198394775, 0.1318008303642273, -0.031184393912553787, -0.10231106728315353, -0.1691714972257614, 0.10653571784496307, 0.09096236526966095, 0.039014339447021484, 0.03508884832262993, -0.061386577785015106, -0.03651556000113487, 0.01833530142903328, -0.0974823385477066, 0.006636184640228748, 0.11462244391441345, -0.12731535732746124, -0.08319453150033951, -0.020920895040035248, -0.044584970921278, 0.14521612226963043, -0.021294811740517616, -0.028937632218003273, 0.04277031868696213, -0.09935479611158371, 0.012495508417487144, -0.06283317506313324, 0.050639115273952484, 0.1365157514810562, 0.05597984045743942, -0.02529764361679554, 0.1152564287185669, -0.07251793891191483, -0.09302301704883575, -0.05344834923744202, -0.00662652775645256, 0.011641314253211021, 0.07023032009601593, 0.10594949126243591, 0.025423580780625343, 0.022343669086694717, -0.17098869383335114, -0.1212751567363739, 0.004321015439927578, -0.04559625685214996, 0.10709896683692932, -0.08512414246797562, -0.09315599501132965, -0.02205589972436428, -0.07506465166807175, -0.16218850016593933, 0.09508664160966873, -0.11038744449615479, 0.046725645661354065, -0.0631517618894577, -0.08617760241031647, -0.05121110752224922, 0.09285439550876617, -0.05091370642185211, 0.023587211966514587, -0.10752872377634048, 0.04473237693309784, -0.03563859313726425, 0.0043602194637060165, 0.013593591749668121, 0.12756496667861938, -0.06566116213798523, -0.14808346331119537, -0.10814829915761948, 0.11596914380788803, 0.018073873594403267, 0.10673606395721436, -0.03200935199856758, -0.06649001687765121, -0.11052265763282776, 0.0836324691772461, 0.07468993216753006, 0.07431551069021225, -0.06343666464090347, 0.05764150619506836, 0.08575161546468735, -0.07789672911167145, 0.07569967210292816, 0.0992254987359047, 0.0986504927277565, 0.09567883610725403, -0.021987468004226685, -0.05537786707282066, 0.1642703413963318, -0.16539037227630615, 0.06425672024488449, 0.0450170524418354, 0.05289129912853241, 0.16565248370170593, -0.0018285369733348489, -0.025136077776551247, -0.07575073093175888, -0.008067091926932335, -0.04176699370145798, -0.0840463787317276, 0.05075536668300629, 0.11781653761863708, -0.05848930776119232, 0.0026324675418436527, 0.1040048822760582, -0.14750754833221436, -0.14634296298027039, -0.0961880311369896, 0.06668762117624283, -0.037213388830423355, 0.1585865169763565, 0.02364080771803856, -0.019072679802775383, -0.06722486764192581, 0.026527367532253265, 0.06566040217876434, 0.040875811129808426, 0.10170085728168488, 0.04316321387887001, 0.12904660403728485, 0.12372841686010361, 0.1044822633266449, -0.09138335287570953, -0.1282617598772049, -0.049777328968048096, 0.03590521961450577, -0.012960253283381462, 0.005779423750936985, 0.12987111508846283, 0.12517982721328735, 0.14615443348884583, -0.08010761439800262, 0.009232883341610432, -0.03130665794014931, -0.11938648670911789, -0.1116224005818367, -0.06349974125623703, -0.05535420775413513, 0.06354376673698425, -0.062488626688718796, 0.09873536974191666, 0.023050671443343163, -0.019412469118833542, -0.03585374355316162, -0.01026354730129242, -0.00803495291620493, 0.006380303297191858, -0.132541686296463, -0.06713809818029404, -0.0006861788569949567, 0.1564275324344635, -0.010593695566058159, 0.10935981571674347, 0.020605482161045074, 0.11008031666278839, 0.07698796689510345, 0.0287293940782547, 0.05751379579305649, 0.14242370426654816, -0.04523754119873047, -0.01761016994714737, -0.1245596632361412, 0.12404029071331024, 0.06436273455619812, -0.12608739733695984, -0.02679918333888054, 0.03004966489970684, -0.1318303793668747, 0.11104185879230499, -0.0801604613661766, -0.16201511025428772, 0.03312888368964195, 0.10318918526172638, -0.12406349182128906, 0.06338828802108765, 0.0016442048363387585, -0.12126114219427109, -0.044760022312402725, 0.06363673508167267, -0.03637722134590149, 0.14745581150054932, 0.04214564710855484, 0.14121921360492706, -0.10806279629468918, 0.15423323214054108, -0.04820311442017555, -0.022850777953863144, -0.14347970485687256, -0.12049002945423126, 0.05791525915265083, 0.007278564851731062, -0.0489484965801239, 0.020543046295642853, -0.0747857317328453, -0.007765051443129778, 0.004914481658488512, 0.08861663192510605, 0.07154152542352676, 0.020385904237627983, -0.05025525763630867, -0.00018351399921812117, 0.11742611229419708, -0.044969893991947174, -0.09341356158256531, -0.1490860879421234, -0.04932543635368347, -0.021025098860263824, 0.09469679743051529, -0.03285697102546692, -0.042159304022789, 0.07172136008739471, 0.08696688711643219, -0.03791465237736702, -0.0475987046957016, -0.020150041207671165, 0.11844941973686218, -0.06729215383529663, 0.11634272336959839, 0.08437445014715195], [-0.0158140417188406, -0.09836067259311676, -0.04017939418554306, -0.06540299206972122, -0.12851861119270325, 0.07867328822612762, 0.15664072334766388, 0.048556551337242126, 0.09170959144830704, -0.12828505039215088, -0.024069618433713913, -0.12707000970840454, 0.029064733535051346, 0.11110927909612656, 0.007651702035218477, -0.15014702081680298, -0.009983550757169724, -0.020300528034567833, -0.04717956483364105, 0.06220332905650139, 0.03983651474118233, 0.04838341847062111, -0.06899366527795792, -0.07834315299987793, -0.11714969575405121, -0.0012185677187517285, -0.018225768581032753, 0.07976202666759491, 0.0670451819896698, -0.13546225428581238, 0.00513974716886878, -0.08360657840967178, -0.11428485065698624, 0.07805634289979935, -0.10036933422088623, -0.032021645456552505, -0.05772284418344498, 0.09163534641265869, 0.00040761756827123463, -0.11432775110006332, 0.013383937068283558, 0.08564605563879013, 0.07054337114095688, -0.056552402675151825, 0.0873120129108429, 0.13932308554649353, 0.12977935373783112, 0.0148166473954916, 0.028920724987983704, -0.07251478731632233, 0.09991084039211273, 0.057836342602968216, 0.0479191355407238, -0.05237363278865814, 0.08156504482030869, 0.12194353342056274, -0.08726398646831512, 0.06827811151742935, -0.015488235279917717, 0.08927056938409805, -0.005780147388577461, -0.024142667651176453, 0.07225055992603302, -0.07263219356536865, 0.045211002230644226, -0.02627207525074482, 0.04035729169845581, -0.057615168392658234, 0.041139863431453705, -0.031919192522764206, -0.1014462262392044, -0.059875812381505966, -0.1023886650800705, 0.14009243249893188, 0.07541000097990036, -0.04017120972275734, 0.040526919066905975, -0.025717521086335182, 0.011434010230004787, 0.10289876908063889, 0.1021953746676445, -0.01004316471517086, 0.05066002532839775, -0.07078327238559723, 0.09742208570241928, -0.1323547065258026, 0.007796566467732191, 0.04624425619840622, 0.07721736282110214, -0.13014639914035797, 0.12806455790996552, -0.055011723190546036, 0.0399615503847599, -0.12055280804634094, -0.02056381292641163, -0.028310837224125862, -0.03167976066470146, -0.09158585965633392, -0.12423116713762283, -0.013665382750332355, 0.06332489103078842, 0.12178035825490952, -0.07225312292575836, -0.047922007739543915, -0.1367982178926468, -0.10182488709688187, 0.02970411814749241, 0.0006834428641013801, -0.1146307960152626, -0.035616710782051086, -0.12353867292404175, 0.1174335852265358, 0.07936782389879227, -0.1369379609823227, -0.06056983023881912, 0.0820644199848175, 0.1434735357761383, -0.06146370247006416, -0.11093974113464355, -0.11132007092237473, -0.026264842599630356, -0.04441874846816063, -0.11317013949155807, 0.050032977014780045, -0.10002126544713974, 0.09988737106323242, -0.041385047137737274, -0.15018945932388306, 0.04878358170390129, -0.006858366541564465, 0.13276727497577667, 0.028397582471370697, -0.05932479724287987, 0.011918512172996998, -0.06226108595728874, 0.07492132484912872, -0.03735767677426338, -0.014078501611948013, -0.15116499364376068, 0.018851928412914276, 0.10076979547739029, 0.08097346127033234, -0.12461288273334503, -0.09821835905313492, 0.05059998109936714, 0.06313794106245041, -0.12460954487323761, -0.01671094447374344, -0.08053306490182877, 0.14122432470321655, -0.140165314078331, -0.1211925595998764, 0.09118098765611649, -0.1273932307958603, -0.030636034905910492, 0.0031624312978237867, -0.07001090049743652, -0.07469063252210617, 0.0461714044213295, -0.0690811350941658, -0.010158203542232513, 0.054172031581401825, 0.042110808193683624, -0.06724773347377777, -0.06689437478780746, -0.03831828385591507, -0.015966273844242096, -0.03897158429026604, 0.09207533299922943, -0.10853394120931625, -0.09082506597042084, -0.05385613441467285, 0.012498358264565468, -0.06377850472927094, 0.040000103414058685, -0.03971569985151291, 0.13199983537197113, 0.07063686102628708, -0.08995819836854935, -0.032137833535671234, -0.023855669423937798, -0.1052471250295639, 0.015832284465432167, 0.10462621599435806, 0.041155602782964706, 0.052014533430337906, -0.029258251190185547, -0.09603225439786911, 0.09969648718833923, -0.011574158445000648, 0.037742093205451965, -0.017255065962672234, -0.10631157457828522, 0.08048366010189056, -0.10262418538331985, 0.155755877494812, 0.11522047221660614, 0.059982072561979294, 0.07612957805395126, 0.05311599373817444, 0.11622928828001022, -0.08111608028411865, -0.034736037254333496, 0.07400721311569214, -0.019997255876660347, -0.003506419947370887, -0.0738096758723259, 0.00040947803063318133, 0.08488370478153229, -0.10551763325929642, 0.15019169449806213, 0.0644083321094513, 0.0904046818614006, -0.015064965933561325, 0.08876027166843414, -0.1243794858455658, 0.0356016680598259, -0.16609257459640503, 0.08278441429138184, 0.15139147639274597, -0.07950673997402191, -0.03720063343644142, 0.02639901079237461, -0.09008468687534332, 0.11545728892087936, -0.10198593884706497, -0.07115446776151657, 0.09212130308151245, 0.07477625459432602, 0.06202756613492966, -0.035913363099098206, 0.04162770137190819, 0.06895776838064194, 0.03963508456945419, 0.05882246419787407, 0.023965254426002502, -0.037506621330976486, -0.10895620286464691, 0.1056036427617073, -0.10782870650291443, 0.011460513807833195, -0.07915129512548447, 0.050101157277822495, 0.09438545256853104, -0.11974196135997772, -0.15126004815101624, -0.08449248969554901, 0.026630019769072533, 0.11213987320661545, -0.1325330138206482, 0.03945092856884003, -0.021910011768341064, -0.03867017477750778, 0.14682839810848236, -0.08584798872470856, -0.018780361860990524], [-0.17883795499801636, -0.115770123898983, -0.0994224101305008, -0.17028401792049408, 0.013828291557729244, 0.007810174487531185, 0.01192334946244955, -0.10230714827775955, -0.01000953745096922, 0.03149653971195221, 0.1204829141497612, -0.13296720385551453, 0.08286615461111069, 0.04209654778242111, 0.051828041672706604, 0.042857956141233444, -0.1436007171869278, -0.14872755110263824, 0.011139665730297565, -0.07703142613172531, 0.1420220285654068, -0.043742842972278595, -0.049728237092494965, 0.1250564455986023, -0.011746609583497047, -0.012170537374913692, 0.010476191528141499, 0.11746790260076523, 0.06699920445680618, 0.09052921831607819, 0.015507216565310955, 0.09313610941171646, -0.032077401876449585, -0.16985124349594116, -0.07818584144115448, -0.079051174223423, 0.08170017600059509, 0.03040423057973385, 0.05793271213769913, -0.15884444117546082, 0.0958334282040596, -0.06868279725313187, 0.0722096785902977, 0.024814141914248466, -0.046869952231645584, -0.1263536512851715, -0.14536049962043762, 0.09344425052404404, 0.12448060512542725, 0.024157878011465073, -0.10264645516872406, -0.06125788018107414, 0.04935414344072342, 0.09820184111595154, -0.13969190418720245, -0.08857601135969162, 0.04366539791226387, -0.06521040946245193, -0.09721441566944122, -0.1424272656440735, -0.011782282032072544, 0.08576871454715729, 0.13786371052265167, 0.03719707950949669, -0.043487466871738434, -0.0719871073961258, 0.02763444557785988, -0.010399461723864079, 0.00993615947663784, -0.05461835116147995, -0.034266602247953415, -0.14592896401882172, -0.0739913284778595, -0.08197567611932755, -0.13033679127693176, 0.11636042594909668, -0.04815629497170448, 0.006932199466973543, 0.12225858122110367, 0.104253850877285, 0.05785546824336052, 0.03303077444434166, -0.05093517526984215, -0.07812533527612686, -0.02203797735273838, 0.06568796187639236, 0.08248289674520493, -0.0770515501499176, -0.09209899604320526, 0.057034023106098175, -0.12643937766551971, 0.05786958336830139, 0.06772519648075104, 0.08393526077270508, 0.10198479890823364, 0.13144975900650024, 0.026859953999519348, 0.0734735056757927, 0.0511404424905777, -0.12627500295639038, -0.10202595591545105, -0.047333285212516785, 0.022763701155781746, 0.06319329142570496, 0.09202452003955841, -0.0964115634560585, -0.05112392455339432, 0.15609942376613617, -0.14127197861671448, 0.02820039913058281, 0.04842957854270935, 0.044576793909072876, -0.10872852802276611, -0.12711957097053528, -0.11339244991540909, 0.06519182026386261, 0.04441496357321739, -0.07438521832227707, 0.0024631412234157324, 0.06420619040727615, -0.09128167480230331, -0.010758512653410435, 0.010260057635605335, -0.08468671888113022, -0.015673484653234482, 0.019918860867619514, 0.1206468790769577, 0.06340295076370239, 0.022485461086034775, 0.025722647085785866, -0.0512046217918396, 0.066965252161026, -0.021082770079374313, -0.12427639961242676, 0.062475915998220444, 0.056730546057224274, -0.0455537773668766, 0.08549469709396362, -0.11487492173910141, -0.02574429288506508, -0.14140960574150085, 0.022425543516874313, 0.08687911182641983, -0.018544869497418404, 0.06961660832166672, -0.04702746123075485, 0.05119738355278969, 0.04194235801696777, -0.05810478702187538, 0.12534934282302856, -0.05547911673784256, -0.12652628123760223, 0.0430532768368721, 0.11765725910663605, -0.051821522414684296, -0.1374160349369049, -0.05475990101695061, -0.03602816164493561, -0.0730859711766243, 0.016330108046531677, 0.16057388484477997, 0.0108093973249197, 0.00961290206760168, -0.06830321252346039, -0.10174217075109482, 0.08137284964323044, -0.023315666243433952, -0.0597318597137928, 0.05092976242303848, -0.008457059971988201, 0.03142900392413139, -0.14551997184753418, 0.09691579639911652, 0.07527727633714676, 0.053804393857717514, 0.1656631976366043, -0.051586173474788666, -0.04853847622871399, 0.03663742542266846, 0.04863402992486954, -0.007810613140463829, -0.03853554278612137, -0.14047279953956604, -0.005979714449495077, -0.12911228835582733, 0.058205123990774155, -0.11886013299226761, -0.06559257954359055, -0.03872860223054886, 0.0020708199590444565, 0.06605187058448792, 0.04610517993569374, -0.03184666857123375, 0.06167975440621376, 0.04865392670035362, -0.08814267814159393, -0.0056738946586847305, 0.08416006714105606, -0.05210484191775322, -0.031559742987155914, -0.10221339762210846, -0.15334199368953705, 0.02147737704217434, 0.05553004890680313, -0.0855565071105957, 0.1857805699110031, 0.07142721861600876, 0.043680381029844284, 0.11151687055826187, -0.07191117107868195, 0.020941397175192833, 0.011546546593308449, 0.08586829900741577, 0.10985728353261948, -0.08370029181241989, 0.08675523102283478, -0.06466501951217651, 0.12303599715232849, 0.13837218284606934, -0.12029479444026947, 0.03586413338780403, -0.15224020183086395, -0.044433318078517914, -0.02951110526919365, 0.047123465687036514, 0.13198862969875336, 0.010106285102665424, -0.031056199222803116, 0.06515516340732574, 0.10357031971216202, -0.10371579974889755, 0.1605166792869568, -0.0874846875667572, 0.04564397409558296, -0.024310674518346786, -0.1100759282708168, 0.007875755429267883, 0.004657899960875511, -0.006288294680416584, -0.14750078320503235, 0.03653733804821968, 0.13794608414173126, 0.004242716357111931, -0.09349721670150757, -0.04309757053852081, -0.15791723132133484, 0.07656800746917725, 0.049514949321746826, 0.002714036498218775, -0.0176004059612751, 0.12240920960903168, 0.03607011213898659, 0.06271329522132874, 0.013372344896197319, 0.04287480562925339, 0.0463482066988945], [0.006826531141996384, 0.13109703361988068, 0.01901017129421234, 0.007118279580026865, -0.0920797735452652, 0.027090508490800858, 0.006587308365851641, -0.06935781240463257, -0.13174021244049072, 0.058689698576927185, 0.08522617071866989, -0.008883770555257797, -0.08419740200042725, 0.02163044549524784, -0.09901615977287292, -0.05364017188549042, -0.06684798002243042, -0.1141483411192894, -0.09589340537786484, -0.020730646327137947, -0.10467938333749771, -0.000847087474539876, -0.02347349375486374, -0.04779705032706261, -0.040733519941568375, 0.11867344379425049, -0.06373947858810425, -0.03063639998435974, -0.08581165224313736, -0.14947479963302612, -0.023090099915862083, 0.04712129384279251, 0.12563909590244293, 0.05263509601354599, 0.09549582004547119, -0.15265099704265594, -0.1062340959906578, -0.1088995635509491, -0.09472367912530899, -0.01631561852991581, 0.013229611329734325, -0.10829704254865646, 0.13278703391551971, 0.07547867298126221, -0.04451067000627518, -0.12455587089061737, -0.10177982598543167, -0.11283517628908157, -0.1388993263244629, -0.030738281086087227, -0.029101725667715073, -0.006523793563246727, 0.16104289889335632, 0.004082810133695602, 0.1329338401556015, -0.13205453753471375, -0.016173571348190308, 0.04157305136322975, -0.14368276298046112, -0.07046665251255035, 0.07417692244052887, 